{"learner":{"attributes":{"best_iteration":"0","best_ntree_limit":"1000","scikit_learn":"{\"use_label_encoder\": null, \"n_estimators\": 1000, \"objective\": \"binary:logistic\", \"max_depth\": 9, \"max_leaves\": null, \"max_bin\": null, \"grow_policy\": null, \"learning_rate\": 0.001, \"verbosity\": null, \"booster\": null, \"tree_method\": \"gpu_hist\", \"gamma\": null, \"min_child_weight\": null, \"max_delta_step\": null, \"subsample\": 0.8403126782147267, \"sampling_method\": null, \"colsample_bytree\": null, \"colsample_bylevel\": null, \"colsample_bynode\": 0.8, \"reg_alpha\": null, \"reg_lambda\": 1e-05, \"scale_pos_weight\": 2, \"base_score\": null, \"missing\": NaN, \"num_parallel_tree\": null, \"random_state\": 42, \"n_jobs\": -1, \"monotone_constraints\": null, \"interaction_constraints\": null, \"importance_type\": null, \"gpu_id\": 0, \"validate_parameters\": null, \"predictor\": null, \"enable_categorical\": false, \"feature_types\": null, \"max_cat_to_onehot\": null, \"max_cat_threshold\": null, \"eval_metric\": null, \"early_stopping_rounds\": null, \"callbacks\": null, \"classes_\": [0, 1], \"n_classes_\": 2, \"_estimator_type\": \"classifier\"}"},"feature_names":["JobsReported","PROCEED_Per_Job","isAfterBiden","isDiffBorrowerAndProjectCity","log_InitialApprovalAmount","log_CurrentApprovalAmount","log_TOTAL_PROCEED","log_PROCEED_Per_Job","log_JobsReported","log_InitialApprovalAmount_standardised","log_CurrentApprovalAmount_standardised","log_TOTAL_PROCEED_standardised","log_PROCEED_Per_Job_standardised","log_JobsReported_standardised","payroll_over_other","BorrowerState_AK","BorrowerState_AL","BorrowerState_AR","BorrowerState_AS","BorrowerState_AZ","BorrowerState_CA","BorrowerState_CO","BorrowerState_CT","BorrowerState_DC","BorrowerState_DE","BorrowerState_FL","BorrowerState_GA","BorrowerState_GU","BorrowerState_HI","BorrowerState_IA","BorrowerState_ID","BorrowerState_IL","BorrowerState_IN","BorrowerState_KS","BorrowerState_KY","BorrowerState_LA","BorrowerState_MA","BorrowerState_MD","BorrowerState_ME","BorrowerState_MI","BorrowerState_MN","BorrowerState_MO","BorrowerState_MP","BorrowerState_MS","BorrowerState_MT","BorrowerState_NC","BorrowerState_ND","BorrowerState_NE","BorrowerState_NH","BorrowerState_NJ","BorrowerState_NM","BorrowerState_NV","BorrowerState_NY","BorrowerState_OH","BorrowerState_OK","BorrowerState_OR","BorrowerState_PA","BorrowerState_PR","BorrowerState_RI","BorrowerState_SC","BorrowerState_SD","BorrowerState_TN","BorrowerState_TX","BorrowerState_UNK","BorrowerState_UT","BorrowerState_VA","BorrowerState_VI","BorrowerState_VT","BorrowerState_WA","BorrowerState_WI","BorrowerState_WV","BorrowerState_WY","Term_cat_between_24_60","Term_cat_is_24","Term_cat_is_60","Term_cat_less_than_24","Term_cat_more_than_60","ProcessingMethod_PPP","ProcessingMethod_PPS","LoanStatus_Active Un-Disbursed","LoanStatus_Exemption 4","LoanStatus_Paid in Full","RuralUrbanIndicator_R","RuralUrbanIndicator_U","HubzoneIndicator_N","HubzoneIndicator_Y","LMIIndicator_N","LMIIndicator_Y","BusinessAgeDescription_Change of Ownership","BusinessAgeDescription_Existing or more than 2 years old","BusinessAgeDescription_New Business or 2 years or less","BusinessAgeDescription_Startup, Loan Funds will Open Business","BusinessAgeDescription_Unanswered","Race_American Indian or Alaska Native","Race_Asian","Race_Black or African American","Race_Eskimo & Aleut","Race_Multi Group","Race_Native Hawaiian or Other Pacific Islander","Race_Puerto Rican","Race_Unanswered","Race_White","Ethnicity_Hispanic or Latino","Ethnicity_Not Hispanic or Latino","Ethnicity_Unknown/NotStated","Gender_Female Owned","Gender_Male Owned","Gender_Unanswered","Veteran_Non-Veteran","Veteran_Unanswered","Veteran_Veteran","Industry_Accommodation and food services","Industry_Administrative and support and waste management and remediation services","Industry_Agriculture, forestry, fishing and hunting","Industry_Arts, entertainment, and recreation","Industry_Construction","Industry_Educational services","Industry_Finance and insurance","Industry_Health care and social assistance","Industry_Information","Industry_Management of companies and enterprises","Industry_Manufacturing","Industry_Mining, quarrying, and oil and gas extraction","Industry_Nonclassifiable establishment","Industry_Other services (except public administration) ","Industry_Professional, scientific, and technical services","Industry_Public service ","Industry_Real estate and rental and leasing","Industry_Retail trade","Industry_Transportation and warehousing","Industry_Utilities","Industry_Wholesale trade"],"feature_types":["float","float","int","int","float","float","float","float","float","float","float","float","float","float","float","int","int","int","int","int","int","int","int","int","int","int","int","int","int","int","int","int","int","int","int","int","int","int","int","int","int","int","int","int","int","int","int","int","int","int","int","int","int","int","int","int","int","int","int","int","int","int","int","int","int","int","int","int","int","int","int","int","int","int","int","int","int","int","int","int","int","int","int","int","int","int","int","int","int","int","int","int","int","int","int","int","int","int","int","int","int","int","int","int","int","int","int","int","int","int","int","int","int","int","int","int","int","int","int","int","int","int","int","int","int","int","int","int","int","int","int","int"],"gradient_booster":{"model":{"gbtree_model_param":{"num_parallel_tree":"1000","num_trees":"1000","size_leaf_vector":"0"},"tree_info":[0,0,0,0,0,0,0,0,0,0,0,0,0,0,0,0,0,0,0,0,0,0,0,0,0,0,0,0,0,0,0,0,0,0,0,0,0,0,0,0,0,0,0,0,0,0,0,0,0,0,0,0,0,0,0,0,0,0,0,0,0,0,0,0,0,0,0,0,0,0,0,0,0,0,0,0,0,0,0,0,0,0,0,0,0,0,0,0,0,0,0,0,0,0,0,0,0,0,0,0,0,0,0,0,0,0,0,0,0,0,0,0,0,0,0,0,0,0,0,0,0,0,0,0,0,0,0,0,0,0,0,0,0,0,0,0,0,0,0,0,0,0,0,0,0,0,0,0,0,0,0,0,0,0,0,0,0,0,0,0,0,0,0,0,0,0,0,0,0,0,0,0,0,0,0,0,0,0,0,0,0,0,0,0,0,0,0,0,0,0,0,0,0,0,0,0,0,0,0,0,0,0,0,0,0,0,0,0,0,0,0,0,0,0,0,0,0,0,0,0,0,0,0,0,0,0,0,0,0,0,0,0,0,0,0,0,0,0,0,0,0,0,0,0,0,0,0,0,0,0,0,0,0,0,0,0,0,0,0,0,0,0,0,0,0,0,0,0,0,0,0,0,0,0,0,0,0,0,0,0,0,0,0,0,0,0,0,0,0,0,0,0,0,0,0,0,0,0,0,0,0,0,0,0,0,0,0,0,0,0,0,0,0,0,0,0,0,0,0,0,0,0,0,0,0,0,0,0,0,0,0,0,0,0,0,0,0,0,0,0,0,0,0,0,0,0,0,0,0,0,0,0,0,0,0,0,0,0,0,0,0,0,0,0,0,0,0,0,0,0,0,0,0,0,0,0,0,0,0,0,0,0,0,0,0,0,0,0,0,0,0,0,0,0,0,0,0,0,0,0,0,0,0,0,0,0,0,0,0,0,0,0,0,0,0,0,0,0,0,0,0,0,0,0,0,0,0,0,0,0,0,0,0,0,0,0,0,0,0,0,0,0,0,0,0,0,0,0,0,0,0,0,0,0,0,0,0,0,0,0,0,0,0,0,0,0,0,0,0,0,0,0,0,0,0,0,0,0,0,0,0,0,0,0,0,0,0,0,0,0,0,0,0,0,0,0,0,0,0,0,0,0,0,0,0,0,0,0,0,0,0,0,0,0,0,0,0,0,0,0,0,0,0,0,0,0,0,0,0,0,0,0,0,0,0,0,0,0,0,0,0,0,0,0,0,0,0,0,0,0,0,0,0,0,0,0,0,0,0,0,0,0,0,0,0,0,0,0,0,0,0,0,0,0,0,0,0,0,0,0,0,0,0,0,0,0,0,0,0,0,0,0,0,0,0,0,0,0,0,0,0,0,0,0,0,0,0,0,0,0,0,0,0,0,0,0,0,0,0,0,0,0,0,0,0,0,0,0,0,0,0,0,0,0,0,0,0,0,0,0,0,0,0,0,0,0,0,0,0,0,0,0,0,0,0,0,0,0,0,0,0,0,0,0,0,0,0,0,0,0,0,0,0,0,0,0,0,0,0,0,0,0,0,0,0,0,0,0,0,0,0,0,0,0,0,0,0,0,0,0,0,0,0,0,0,0,0,0,0,0,0,0,0,0,0,0,0,0,0,0,0,0,0,0,0,0,0,0,0,0,0,0,0,0,0,0,0,0,0,0,0,0,0,0,0,0,0,0,0,0,0,0,0,0,0,0,0,0,0,0,0,0,0,0,0,0,0,0,0,0,0,0,0,0,0,0,0,0,0,0,0,0,0,0,0,0,0,0,0,0,0,0,0,0,0,0,0,0,0,0,0,0,0,0,0,0,0,0,0,0,0,0,0,0,0,0,0,0,0,0,0,0,0,0,0,0,0,0,0,0,0,0,0,0,0,0,0,0,0,0,0,0,0,0,0,0,0,0,0,0,0,0,0,0,0,0,0,0,0,0,0,0,0,0,0,0,0,0,0,0,0,0,0,0,0,0,0,0,0,0,0,0,0,0,0,0,0,0,0,0,0,0,0,0,0,0,0,0,0,0,0,0,0,0,0,0,0,0,0,0,0,0,0,0,0,0,0,0,0,0,0,0,0,0,0,0,0,0,0,0,0,0,0,0,0,0,0,0,0,0,0,0,0,0,0,0,0,0,0,0,0,0,0,0,0,0,0,0,0,0,0,0,0,0,0,0,0,0,0,0,0,0,0,0,0,0,0,0,0,0,0,0,0,0,0,0,0,0,0,0,0,0,0,0,0,0,0,0,0,0],"trees":[{"base_weights":[6.935687E-1,-1.0526314E0,1.39823E0,3.999998E-1,-1.8378373E0,-6.7716515E-1,1.9999998E-6,-1.085713E0,1.5555542E0,-1.9411759E0,-6.666644E-1,-1.7948709E0,1.1020399E0,-1.7142832E0,1.4285632E-6,1.8181752E-1,1.9999977E-6,-1.9999993E-6,-6.6666223E-7,1.99998E-6,-1.99999E-6,-1.8918909E0,-0E0,-1.9999886E-6,1.6190461E0,-1.9999966E-6,-3.999968E-7,-8.57138E-7,1.99998E-6,-1.9999989E-6,-0E0,6.666637E-1,1.8787856E0,-3.999968E-7,1.99998E-6,1.1999904E-6,1.999997E-6],"categories":[],"categories_nodes":[],"categories_segments":[],"categories_sizes":[],"default_left":[0,0,0,0,0,0,0,0,0,0,0,0,0,0,0,0,0,0,0,0,0,0,0,0,0,0,0,0,0,0,0,0,0,0,0,0,0],"id":0,"left_children":[1,3,5,7,9,11,-1,13,15,17,19,21,23,25,-1,27,-1,-1,-1,-1,-1,29,-1,-1,31,-1,-1,-1,-1,-1,-1,33,35,-1,-1,-1,-1],"loss_changes":[2.439426E2,6.5015045E1,1.764086E2,3.433648E1,4.477989E0,6.313897E1,0E0,1.3828533E1,6.8686714E0,2.548996E0,1.0666591E1,3.3956985E0,1.9646204E1,2.628559E0,0E0,5.1947584E0,0E0,0E0,0E0,0E0,0E0,3.783783E0,0E0,0E0,2.5973911E0,0E0,0E0,0E0,0E0,0E0,0E0,3.1999629E0,6.7876816E-1,0E0,0E0,0E0,0E0],"parents":[2147483647,0,0,1,1,2,2,3,3,4,4,5,5,7,7,8,8,9,9,10,10,11,11,12,12,13,13,15,15,21,21,24,24,31,31,32,32],"right_children":[2,4,6,8,10,12,-1,14,16,18,20,22,24,26,-1,28,-1,-1,-1,-1,-1,30,-1,-1,32,-1,-1,-1,-1,-1,-1,34,36,-1,-1,-1,-1],"split_conditions":[1.3021568E1,1E0,1E0,1E0,1.2931089E1,1E0,1.9999998E-6,7.853308E-1,9.336875E0,1E0,1.2959961E1,1E0,1E0,1E0,1.4285632E-6,1E0,1.9999977E-6,-1.9999993E-6,-6.6666223E-7,1.99998E-6,-1.99999E-6,1E0,-0E0,-1.9999886E-6,1E0,-1.9999966E-6,-3.999968E-7,-8.57138E-7,1.99998E-6,-1.9999989E-6,-0E0,1.669823E4,1.086417E4,-3.999968E-7,1.99998E-6,1.1999904E-6,1.999997E-6],"split_indices":[5,81,15,77,5,80,0,12,7,131,4,40,77,52,0,62,0,0,0,0,0,90,0,0,84,0,0,0,0,0,0,1,1,0,0,0,0],"split_type":[0,0,0,0,0,0,0,0,0,0,0,0,0,0,0,0,0,0,0,0,0,0,0,0,0,0,0,0,0,0,0,0,0,0,0,0,0],"sum_hessian":[1.9825E2,5.7E1,1.4125E2,2E1,3.7E1,3.175E1,1.095E2,8.75E0,1.125E1,3.4E1,3E0,1.95E1,1.225E1,7E0,1.75E0,2.75E0,8.5E0,3.25E1,1.5E0,1E0,2E0,1.85E1,1E0,1.75E0,1.05E1,5.75E0,1.25E0,1.75E0,1E0,1.75E1,1E0,2.25E0,8.25E0,1.25E0,1E0,1.25E0,7E0],"tree_param":{"num_deleted":"0","num_feature":"132","num_nodes":"37","size_leaf_vector":"0"}},{"base_weights":[6.265664E-1,-9.7267747E-1,1.9814813E0,-1.7355369E0,5.1612884E-1,1.4285632E-6,1.9905881E0,-1.7957444E0,2.8571264E-7,1.7575747E0,-8.9655113E-1,1.9999998E-6,1.7333287E0,-1.8614715E0,1.99998E-6,1.934425E0,-3.999968E-7,-1.3043467E0,6.666644E-1,1.999992E-6,1.1999904E-6,-1.8942728E0,-0E0,1.9999986E-6,1.1999904E-6,-1.999997E-6,-3.157888E-1,1.99998E-6,-0E0,-1.9276015E0,-6.6666223E-7,-1.3333288E0,1.4285632E-6,-1.9622638E0,-1.1111062E0,-0E0,-1.99999E-6,-1.9999995E-6,-1.4666628E0,-0E0,-1.999984E-6,-6.6666223E-7,-1.9999911E-6],"categories":[],"categories_nodes":[],"categories_segments":[],"categories_sizes":[],"default_left":[0,0,0,0,0,0,0,0,0,0,0,0,0,0,0,0,0,0,0,0,0,0,0,0,0,0,0,0,0,0,0,0,0,0,0,0,0,0,0,0,0,0,0],"id":1,"left_children":[1,3,5,7,9,-1,11,13,-1,15,17,-1,19,21,-1,23,-1,25,27,-1,-1,29,-1,-1,-1,-1,31,-1,-1,33,-1,35,-1,37,39,-1,-1,-1,41,-1,-1,-1,-1],"loss_changes":[4.322845E2,1.0392114E2,5.4382324E-1,7.3625183E0,5.436677E1,0E0,2.5723267E-1,1.46571045E1,0E0,6.295868E0,9.243364E0,0E0,5.33309E-1,3.526123E0,0E0,7.3440933E-1,0E0,7.9084415E0,2.6666312E0,0E0,0E0,2.3218994E0,0E0,0E0,0E0,0E0,8.431041E0,0E0,0E0,1.5636597E0,0E0,2.6666446E0,0E0,9.9116516E-1,2.2221944E0,0E0,0E0,0E0,1.5999765E0,0E0,0E0,0E0,0E0],"parents":[2147483647,0,0,1,1,2,2,3,3,4,4,6,6,7,7,9,9,10,10,12,12,13,13,15,15,17,17,18,18,21,21,26,26,29,29,31,31,33,33,34,34,38,38],"right_children":[2,4,6,8,10,-1,12,14,-1,16,18,-1,20,22,-1,24,-1,26,28,-1,-1,30,-1,-1,-1,-1,32,-1,-1,34,-1,36,-1,38,40,-1,-1,-1,42,-1,-1,-1,-1],"split_conditions":[1E0,1E0,1.2931089E1,1E0,1E0,1.4285632E-6,1E0,1E0,2.8571264E-7,1.02E2,1.805582E4,1.9999998E-6,1.3247585E1,1E0,1.99998E-6,1.3817204E1,-3.999968E-7,3.9E1,9E0,1.999992E-6,1.1999904E-6,1E0,-0E0,1.9999986E-6,1.1999904E-6,-1.999997E-6,1E0,1.99998E-6,-0E0,1E0,-6.6666223E-7,1.2517016E1,1.4285632E-6,1E0,1.123372E4,-0E0,-1.99999E-6,-1.9999995E-6,1.2517016E1,-0E0,-1.999984E-6,-6.6666223E-7,-1.9999911E-6],"split_indices":[15,80,4,129,74,0,124,63,0,0,1,0,4,65,0,4,0,0,0,0,0,40,0,0,0,0,77,0,0,53,0,4,0,25,1,0,0,0,4,0,0,0,0],"split_type":[0,0,0,0,0,0,0,0,0,0,0,0,0,0,0,0,0,0,0,0,0,0,0,0,0,0,0,0,0,0,0,0,0,0,0,0,0,0,0,0,0,0,0],"sum_hessian":[1.995E2,9.15E1,1.08E2,6.05E1,3.1E1,1.75E0,1.0625E2,5.875E1,1.75E0,1.65E1,1.45E1,1.025E2,3.75E0,5.775E1,1E0,1.525E1,1.25E0,1.15E1,3E0,2.5E0,1.25E0,5.675E1,1E0,1.4E1,1.25E0,6.75E0,4.75E0,1E0,2E0,5.525E1,1.5E0,3E0,1.75E0,5.3E1,2.25E0,1E0,2E0,4.925E1,3.75E0,1E0,1.25E0,1.5E0,2.25E0],"tree_param":{"num_deleted":"0","num_feature":"132","num_nodes":"43","size_leaf_vector":"0"}},{"base_weights":[6.5660375E-1,-9.7206694E-1,1.9908465E0,4.8062E-1,-1.7903928E0,1.9999998E-6,1.6923025E0,-1.4146328E0,1.3636358E0,-1.8577775E0,1.99998E-6,1.1999904E-6,1.99999E-6,-1.999997E-6,-1.5384568E-1,-9.99995E-1,1.5999992E0,-1.8914024E0,-0E0,-1.9999886E-6,1.9999866E-6,-0E0,-1.99998E-6,-3.999968E-7,1.7333324E0,-1.9230765E0,-1.3846111E0,1.8260859E0,6.6666223E-7,-1.9597986E0,-1.1111062E0,-0E0,-1.9999911E-6,1.1999968E0,1.9999986E-6,-1.9999995E-6,-1.652171E0,-0E0,-1.999984E-6,6.666637E-1,1.9999866E-6,-9.99995E-1,-1.9999945E-6,-3.999968E-7,1.99998E-6,-1.99998E-6,-0E0],"categories":[],"categories_nodes":[],"categories_segments":[],"categories_sizes":[],"default_left":[0,0,0,0,0,0,0,0,0,0,0,0,0,0,0,0,0,0,0,0,0,0,0,0,0,0,0,0,0,0,0,0,0,0,0,0,0,0,0,0,0,0,0,0,0,0,0],"id":2,"left_children":[1,3,5,7,9,-1,11,13,15,17,-1,-1,-1,-1,19,21,23,25,-1,-1,-1,-1,-1,-1,27,29,31,33,-1,35,37,-1,-1,39,-1,-1,41,-1,-1,43,-1,45,-1,-1,-1,-1,-1],"loss_changes":[4.3189218E2,1.06395035E2,2.9852295E-1,5.397164E1,1.4622437E1,0E0,4.922819E-1,7.5647087E0,1.229089E1,3.5138092E0,0E0,0E0,0E0,0E0,1.2922997E1,1.99997E0,5.3333244E0,8.868408E-1,0E0,0E0,0E0,0E0,0E0,0E0,1.8550682E0,1.5504913E0,2.7692099E0,1.8782425E0,0E0,6.152191E-1,2.2221944E0,0E0,0E0,1.5999699E0,0E0,0E0,1.3043251E0,0E0,0E0,3.1999629E0,0E0,1.99997E0,0E0,0E0,0E0,0E0,0E0],"parents":[2147483647,0,0,1,1,2,2,3,3,4,4,6,6,7,7,8,8,9,9,14,14,15,15,16,16,17,17,24,24,25,25,26,26,27,27,29,29,30,30,33,33,36,36,39,39,41,41],"right_children":[2,4,6,8,10,-1,12,14,16,18,-1,-1,-1,-1,20,22,24,26,-1,-1,-1,-1,-1,-1,28,30,32,34,-1,36,38,-1,-1,40,-1,-1,42,-1,-1,44,-1,46,-1,-1,-1,-1,-1],"split_conditions":[1E0,1E0,1E0,1E0,1E0,1.9999998E-6,4.6E1,1.51987E4,8.35155E3,1E0,1.99998E-6,1.1999904E-6,1.99999E-6,-1.999997E-6,1E0,3E1,1.2212154E1,1E0,-0E0,-1.9999886E-6,1.9999866E-6,-0E0,-1.99998E-6,-3.999968E-7,1E0,1E0,1.2219975E1,1E0,6.6666223E-7,1.928571E4,9.326675E0,-0E0,-1.9999911E-6,1.669823E4,1.9999986E-6,-1.9999995E-6,2.091712E4,-0E0,-1.999984E-6,1E0,1.9999866E-6,1.7E1,-1.9999945E-6,-3.999968E-7,1.99998E-6,-1.99998E-6,-0E0],"split_indices":[15,81,124,77,63,0,0,1,1,129,0,0,0,0,103,0,4,25,0,0,0,0,0,0,108,53,5,84,0,1,7,0,0,1,0,0,1,0,0,131,0,0,0,0,0,0,0],"split_type":[0,0,0,0,0,0,0,0,0,0,0,0,0,0,0,0,0,0,0,0,0,0,0,0,0,0,0,0,0,0,0,0,0,0,0,0,0,0,0,0,0,0,0,0,0,0,0],"sum_hessian":[1.9875E2,8.95E1,1.0925E2,3.225E1,5.725E1,1.06E2,3.25E0,1.025E1,2.2E1,5.625E1,1E0,1.25E0,2E0,7E0,3.25E0,2E0,2E1,5.525E1,1E0,1.75E0,1.5E0,1E0,1E0,1.25E0,1.875E1,5.2E1,3.25E0,1.725E1,1.5E0,4.975E1,2.25E0,1E0,2.25E0,3.75E0,1.35E1,4.4E1,5.75E0,1E0,1.25E0,2.25E0,1.5E0,2E0,3.75E0,1.25E0,1E0,1E0,1E0],"tree_param":{"num_deleted":"0","num_feature":"132","num_nodes":"47","size_leaf_vector":"0"}},{"base_weights":[6.524634E-1,-8.6685544E-1,1.9999998E-6,-1.746606E0,6.0606045E-1,-1.8156679E0,1.99998E-6,-1.090908E0,1.4545448E0,-1.849765E0,-0E0,-1.733331E0,2.8571346E-1,-8.57138E-7,1.6543201E0,-1.9183669E0,-1.0588211E0,-3.999968E-7,-1.9999968E-6,-1.9999866E-6,1.99999E-6,-3.999968E-7,1.7894727E0,-1.9572189E0,-1.1111062E0,-1.9999927E-6,6.6666223E-7,1.2941146E0,1.9322021E0,-1.6666639E0,-1.9999995E-6,-0E0,-1.999984E-6,6.666637E-1,1.99999E-6,1.9999986E-6,1.1999904E-6,-1.9999954E-6,-8.57138E-7,-3.999968E-7,1.99998E-6],"categories":[],"categories_nodes":[],"categories_segments":[],"categories_sizes":[],"default_left":[0,0,0,0,0,0,0,0,0,0,0,0,0,0,0,0,0,0,0,0,0,0,0,0,0,0,0,0,0,0,0,0,0,0,0,0,0,0,0,0,0],"id":3,"left_children":[1,3,-1,5,7,9,-1,11,13,15,-1,17,19,-1,21,23,25,-1,-1,-1,-1,-1,27,29,31,-1,-1,33,35,37,-1,-1,-1,39,-1,-1,-1,-1,-1,-1,-1],"loss_changes":[3.8438763E2,1.1435425E2,0E0,1.4295746E1,4.7515125E1,3.358551E0,0E0,9.72812E0,1.0159996E1,2.8893433E0,0E0,2.6666546E0,1.3714207E1,0E0,5.622345E0,1.5368042E0,6.9019275E0,0E0,0E0,0E0,0E0,0E0,1.3433189E0,5.8106995E-1,2.2221944E0,0E0,0E0,1.8823247E0,7.3218536E-1,1.6190281E0,0E0,0E0,0E0,3.1999629E0,0E0,0E0,0E0,0E0,0E0,0E0,0E0],"parents":[2147483647,0,0,1,1,3,3,4,4,5,5,7,7,8,8,9,9,11,11,12,12,14,14,15,15,16,16,22,22,23,23,24,24,27,27,28,28,29,29,33,33],"right_children":[2,4,-1,6,8,10,-1,12,14,16,-1,18,20,-1,22,24,26,-1,-1,-1,-1,-1,28,30,32,-1,-1,34,36,38,-1,-1,-1,40,-1,-1,-1,-1,-1,-1,-1],"split_conditions":[1E0,1E0,1.9999998E-6,1E0,1E0,1E0,1.99998E-6,1E0,8.35155E3,1E0,-0E0,6.79487E3,1.484737E4,-8.57138E-7,1.2212154E1,1E0,1.290591E1,-3.999968E-7,-1.9999968E-6,-1.9999866E-6,1.99999E-6,-3.999968E-7,1E0,1.2056557E1,1.123372E4,-1.9999927E-6,6.6666223E-7,1.669823E4,1E0,9.187583E0,-1.9999995E-6,-0E0,-1.999984E-6,1E0,1.99999E-6,1.9999986E-6,1.1999904E-6,-1.9999954E-6,-8.57138E-7,-3.999968E-7,1.99998E-6],"split_indices":[15,80,0,63,77,65,0,103,1,105,0,1,1,0,4,53,4,0,0,0,0,0,84,5,1,0,0,1,108,7,0,0,0,131,0,0,0,0,0,0,0],"split_type":[0,0,0,0,0,0,0,0,0,0,0,0,0,0,0,0,0,0,0,0,0,0,0,0,0,0,0,0,0,0,0,0,0,0,0,0,0,0,0,0,0],"sum_hessian":[1.8775E2,8.825E1,9.95E1,5.525E1,3.3E1,5.425E1,1E0,1.1E1,2.2E1,5.325E1,1E0,7.5E0,3.5E0,1.75E0,2.025E1,4.9E1,4.25E0,1.25E0,6.25E0,1.5E0,2E0,1.25E0,1.9E1,4.675E1,2.25E0,2.75E0,1.5E0,4.25E0,1.475E1,6E0,4.075E1,1E0,1.25E0,2.25E0,2E0,1.35E1,1.25E0,4.25E0,1.75E0,1.25E0,1E0],"tree_param":{"num_deleted":"0","num_feature":"132","num_nodes":"41","size_leaf_vector":"0"}},{"base_weights":[6.598465E-1,-1.353535E0,1.3424656E0,-1.6483513E0,1.999995E-6,-5.503354E-1,1.9908044E0,-1.9411759E0,-7.8260803E-1,-1.7272719E0,1.1475402E0,1.8260838E0,1.9999998E-6,-1.9999993E-6,-9.99995E-1,-1.652171E0,8.695637E-2,-3.9999893E-1,-1.9999989E-6,1.4285704E0,-1.999984E-6,1.999995E-6,1.4285632E-6,-1.99998E-6,-0E0,-0E0,-1.999996E-6,1.3333288E0,-1.2727226E0,-1.1999952E0,1.1999904E-6,4.6153703E-1,1.7209287E0,-0E0,1.99999E-6,-1.9999886E-6,-0E0,-1.999984E-6,-3.999968E-7,-1.99998E-6,1.5555487E0,1.897434E0,-0E0,1.1999904E-6,1.99998E-6,1.9999977E-6,1.1999904E-6],"categories":[],"categories_nodes":[],"categories_segments":[],"categories_sizes":[],"default_left":[0,0,0,0,0,0,0,0,0,0,0,0,0,0,0,0,0,0,0,0,0,0,0,0,0,0,0,0,0,0,0,0,0,0,0,0,0,0,0,0,0,0,0,0,0,0,0],"id":4,"left_children":[1,3,5,7,-1,9,11,13,15,17,19,21,-1,-1,23,25,27,29,-1,31,-1,-1,-1,-1,-1,-1,-1,33,35,37,-1,39,41,-1,-1,-1,-1,-1,-1,-1,43,45,-1,-1,-1,-1,-1],"loss_changes":[2.686899E2,4.8939445E1,1.7916782E2,1.1534729E1,0E0,7.443642E1,1.6470337E-1,1.8823242E0,8.69563E0,7.963623E0,1.3489414E1,3.9748955E-1,0E0,0E0,1.99997E0,3.3043346E0,9.744367E0,4.7999725E0,0E0,3.9580803E0,0E0,0E0,0E0,0E0,0E0,0E0,0E0,2.6666446E0,2.5454307E0,1.5999727E0,0E0,8.752074E0,3.2653522E0,0E0,0E0,0E0,0E0,0E0,0E0,0E0,3.5552502E-1,6.974182E-1,0E0,0E0,0E0,0E0,0E0],"parents":[2147483647,0,0,1,1,2,2,3,3,5,5,6,6,7,7,8,8,9,9,10,10,11,11,14,14,15,15,16,16,17,17,19,19,27,27,28,28,29,29,31,31,32,32,40,40,41,41],"right_children":[2,4,6,8,-1,10,12,14,16,18,20,22,-1,-1,24,26,28,30,-1,32,-1,-1,-1,-1,-1,-1,-1,34,36,38,-1,40,42,-1,-1,-1,-1,-1,-1,-1,44,46,-1,-1,-1,-1,-1],"split_conditions":[1.28913765E1,1E0,1E0,1E0,1.999995E-6,1E0,2.3E1,1E0,1.315873E4,1.3006148E1,1E0,1E0,1.9999998E-6,-1.9999993E-6,1.039394E4,8.296689E0,1E0,1.820683E4,-1.9999989E-6,1E0,-1.999984E-6,1.999995E-6,1.4285632E-6,-1.99998E-6,-0E0,-0E0,-1.999996E-6,1.2212154E1,1.805582E4,4E1,1.1999904E-6,1.2838E4,1.992829E4,-0E0,1.99999E-6,-1.9999886E-6,-0E0,-1.999984E-6,-3.999968E-7,-1.99998E-6,9.75479E0,1E0,-0E0,1.1999904E-6,1.99998E-6,1.9999977E-6,1.1999904E-6],"split_indices":[5,75,15,80,0,80,0,25,1,5,111,2,0,0,1,7,2,1,0,84,0,0,0,0,0,0,0,4,1,0,0,1,1,0,0,0,0,0,0,0,7,2,0,0,0,0,0],"split_type":[0,0,0,0,0,0,0,0,0,0,0,0,0,0,0,0,0,0,0,0,0,0,0,0,0,0,0,0,0,0,0,0,0,0,0,0,0,0,0,0,0,0,0,0,0,0,0],"sum_hessian":[1.955E2,4.95E1,1.46E2,4.55E1,4E0,3.725E1,1.0875E2,3.4E1,1.15E1,2.2E1,1.525E1,5.75E0,1.03E2,3.2E1,2E0,5.75E0,5.75E0,3.75E0,1.825E1,1.4E1,1.25E0,4E0,1.75E0,1E0,1E0,1E0,4.75E0,3E0,2.75E0,2.5E0,1.25E0,3.25E0,1.075E1,1E0,2E0,1.75E0,1E0,1.25E0,1.25E0,1E0,2.25E0,9.75E0,1E0,1.25E0,1E0,8.5E0,1.25E0],"tree_param":{"num_deleted":"0","num_feature":"132","num_nodes":"47","size_leaf_vector":"0"}},{"base_weights":[6.769626E-1,-9.3948114E-1,1.9813951E0,-1.7488786E0,5.1612884E-1,1.9905881E0,1.1999904E-6,-1.8525342E0,1.9999866E-6,-1.4146328E0,1.4698788E0,1.6363577E0,1.9999998E-6,-1.8867921E0,-3.999968E-7,-1.999997E-6,-1.5384568E-1,-6.6666223E-7,1.6363628E0,1.9999866E-6,1.1999904E-6,-1.9215683E0,-9.99995E-7,-1.9999886E-6,1.9999866E-6,1.9322021E0,6.666652E-1,-1.9593905E0,-8.57138E-7,1.9999986E-6,1.1999904E-6,2.8571346E-1,1.99998E-6,-1.9999995E-6,-1.6799973E0,-6.6666223E-7,9.99995E-1,-1.1111062E0,-1.999995E-6,1.99998E-6,-0E0,-1.99998E-6,-3.999968E-7],"categories":[],"categories_nodes":[],"categories_segments":[],"categories_sizes":[],"default_left":[0,0,0,0,0,0,0,0,0,0,0,0,0,0,0,0,0,0,0,0,0,0,0,0,0,0,0,0,0,0,0,0,0,0,0,0,0,0,0,0,0,0,0],"id":5,"left_children":[1,3,5,7,9,11,-1,13,-1,15,17,19,-1,21,-1,-1,23,-1,25,-1,-1,27,-1,-1,-1,29,31,33,-1,-1,-1,35,-1,-1,37,-1,39,41,-1,-1,-1,-1,-1],"loss_changes":[4.095843E2,1.0220602E2,7.722168E-1,2.166397E1,5.7085423E1,3.5421753E-1,0E0,2.699524E0,0E0,7.5647087E0,7.380787E0,4.3633556E-1,0E0,1.6344452E0,0E0,0E0,1.2922997E1,0E0,5.5223274E0,0E0,0E0,2.0531921E0,0E0,0E0,0E0,7.3218536E-1,2.285678E0,5.5874634E-1,0E0,0E0,0E0,2.3809388E0,0E0,0E0,1.1377525E0,0E0,1.99997E0,1.4221928E0,0E0,0E0,0E0,0E0,0E0],"parents":[2147483647,0,0,1,1,2,2,3,3,4,4,5,5,7,7,9,9,10,10,11,11,13,13,16,16,18,18,21,21,25,25,26,26,27,27,31,31,34,34,36,36,37,37],"right_children":[2,4,6,8,10,12,-1,14,-1,16,18,20,-1,22,-1,-1,24,-1,26,-1,-1,28,-1,-1,-1,30,32,34,-1,-1,-1,36,-1,-1,38,-1,40,42,-1,-1,-1,-1,-1],"split_conditions":[1E0,1E0,1E0,1E0,1E0,1.2931089E1,1.1999904E-6,1E0,1.9999866E-6,1.51987E4,9.32146E3,1.839643E4,1.9999998E-6,1E0,-3.999968E-7,-1.999997E-6,1E0,-6.6666223E-7,1E0,1.9999866E-6,1.1999904E-6,1E0,-9.99995E-7,-1.9999886E-6,1.9999866E-6,1.3817204E1,1E0,9.8484535E0,-8.57138E-7,1.9999986E-6,1.1999904E-6,1.477808E4,1.99998E-6,-1.9999995E-6,2.091712E4,-6.6666223E-7,9.854861E0,1.6E1,-1.999995E-6,1.99998E-6,-0E0,-1.99998E-6,-3.999968E-7],"split_indices":[15,80,72,63,77,4,0,129,0,1,1,1,0,40,0,0,103,0,74,0,0,53,0,0,0,4,128,7,0,0,0,1,0,0,1,0,7,0,0,0,0,0,0],"split_type":[0,0,0,0,0,0,0,0,0,0,0,0,0,0,0,0,0,0,0,0,0,0,0,0,0,0,0,0,0,0,0,0,0,0,0,0,0,0,0,0,0,0,0],"sum_hessian":[1.9425E2,8.675E1,1.075E2,5.575E1,3.1E1,1.0625E2,1.25E0,5.425E1,1.5E0,1.025E1,2.075E1,2.75E0,1.035E2,5.3E1,1.25E0,7E0,3.25E0,1.5E0,1.925E1,1.5E0,1.25E0,5.1E1,2E0,1.75E0,1.5E0,1.475E1,4.5E0,4.925E1,1.75E0,1.35E1,1.25E0,3.5E0,1E0,4.3E1,6.25E0,1.5E0,2E0,2.25E0,4E0,1E0,1E0,1E0,1.25E0],"tree_param":{"num_deleted":"0","num_feature":"132","num_nodes":"43","size_leaf_vector":"0"}},{"base_weights":[6.731946E-1,-9.3188E-1,1.9822221E0,5.86466E-1,-1.7948714E0,1.991011E0,1.1999904E-6,1.3777772E0,-1.0697664E0,-1.8947365E0,1.9999866E-6,1.6363577E0,1.9999998E-6,-9.99995E-1,1.6097553E0,-1.52941E0,6.666637E-1,-1.9617221E0,-1.1578923E0,1.9999866E-6,1.1999904E-6,-0E0,-1.99998E-6,-0E0,1.7837828E0,-3.999968E-7,-1.7241355E0,1.99998E-6,-3.999968E-7,-1.9999995E-6,-1.1111062E0,-1.9999934E-6,2.8571264E-7,1.2941146E0,1.9298232E0,-1.9999964E-6,-8.57138E-7,-0E0,-1.999984E-6,6.666637E-1,1.99999E-6,1.1999904E-6,1.9999984E-6,1.1999904E-6,-0E0],"categories":[],"categories_nodes":[],"categories_segments":[],"categories_sizes":[],"default_left":[0,0,0,0,0,0,0,0,0,0,0,0,0,0,0,0,0,0,0,0,0,0,0,0,0,0,0,0,0,0,0,0,0,0,0,0,0,0,0,0,0,0,0,0,0],"id":6,"left_children":[1,3,5,7,9,11,-1,13,15,17,-1,19,-1,21,23,25,27,29,31,-1,-1,-1,-1,-1,33,-1,35,-1,-1,-1,37,-1,-1,39,41,-1,-1,-1,-1,43,-1,-1,-1,-1,-1],"loss_changes":[4.2914697E2,1.2022184E2,7.73407E-1,4.3577324E1,2.2169983E1,3.546753E-1,0E0,1.241082E1,8.580012E0,2.8133698E0,0E0,4.3633556E-1,0E0,1.99997E0,5.7429085E0,1.8693619E0,3.1999629E0,1.7012024E0,5.774409E0,0E0,0E0,0E0,0E0,0E0,1.322937E0,0E0,1.7339745E0,0E0,0E0,0E0,2.2221944E0,0E0,0E0,1.8823247E0,7.298088E-1,0E0,0E0,0E0,0E0,7.9999E-1,0E0,0E0,0E0,0E0,0E0],"parents":[2147483647,0,0,1,1,2,2,3,3,4,4,5,5,7,7,8,8,9,9,11,11,13,13,14,14,15,15,16,16,17,17,18,18,24,24,26,26,30,30,33,33,34,34,39,39],"right_children":[2,4,6,8,10,12,-1,14,16,18,-1,20,-1,22,24,26,28,30,32,-1,-1,-1,-1,-1,34,-1,36,-1,-1,-1,38,-1,-1,40,42,-1,-1,-1,-1,44,-1,-1,-1,-1,-1],"split_conditions":[1E0,1E0,1E0,1E0,1E0,1.2931089E1,1.1999904E-6,8.35155E3,1.805582E4,1E0,1.9999866E-6,1.839643E4,1.9999998E-6,3E1,1.2311175E1,8.823923E0,1.875686E4,1E0,1.290591E1,1.9999866E-6,1.1999904E-6,-0E0,-1.99998E-6,-0E0,1E0,-3.999968E-7,1.51987E4,1.99998E-6,-3.999968E-7,-1.9999995E-6,1.123372E4,-1.9999934E-6,2.8571264E-7,9.723058E0,1E0,-1.9999964E-6,-8.57138E-7,-0E0,-1.999984E-6,1.28913765E1,1.99999E-6,1.1999904E-6,1.9999984E-6,1.1999904E-6,-0E0],"split_indices":[15,81,72,2,63,4,0,1,1,105,0,1,0,0,4,7,1,53,4,0,0,0,0,0,84,0,1,0,0,0,1,0,0,7,107,0,0,0,0,5,0,0,0,0,0],"split_type":[0,0,0,0,0,0,0,0,0,0,0,0,0,0,0,0,0,0,0,0,0,0,0,0,0,0,0,0,0,0,0,0,0,0,0,0,0,0,0,0,0,0,0,0,0],"sum_hessian":[2.0425E2,9.175E1,1.125E2,3.325E1,5.85E1,1.1125E2,1.25E0,2.25E1,1.075E1,5.7E1,1.5E0,2.75E0,1.085E2,2E0,2.05E1,8.5E0,2.25E0,5.225E1,4.75E0,1.5E0,1.25E0,1E0,1E0,2E0,1.85E1,1.25E0,7.25E0,1E0,1.25E0,5E1,2.25E0,3E0,1.75E0,4.25E0,1.425E1,5.5E0,1.75E0,1E0,1.25E0,2.25E0,2E0,1.25E0,1.3E1,1.25E0,1E0],"tree_param":{"num_deleted":"0","num_feature":"132","num_nodes":"45","size_leaf_vector":"0"}},{"base_weights":[6.6319895E-1,-1.0630629E0,1.9816512E0,-1.7818179E0,3.3628306E-1,1.9907191E0,1.1999904E-6,-1.8518515E0,1.99998E-6,1.5862058E0,-9.818175E-1,1.6363577E0,1.9999998E-6,-1.8867921E0,-0E0,1.8518505E0,-1.99998E-6,-1.589742E0,4.9999875E-1,1.9999866E-6,1.1999904E-6,-1.9211819E0,-1.1111062E0,1.9999973E-6,1.6666639E0,-1.9999968E-6,-7.692284E-1,1.9999866E-6,-3.999984E-1,-1.9999995E-6,-1.4838691E0,-0E0,-1.999984E-6,1.4285673E0,1.999992E-6,-1.99999E-6,1.1999904E-6,-6.6666223E-7,-0E0,-3.999984E-1,-1.9999961E-6,9.99995E-1,1.9999866E-6,-1.9999866E-6,1.99998E-6,-0E0,1.99998E-6],"categories":[],"categories_nodes":[],"categories_segments":[],"categories_sizes":[],"default_left":[0,0,0,0,0,0,0,0,0,0,0,0,0,0,0,0,0,0,0,0,0,0,0,0,0,0,0,0,0,0,0,0,0,0,0,0,0,0,0,0,0,0,0,0,0,0,0],"id":7,"left_children":[1,3,5,7,9,11,-1,13,-1,15,17,19,-1,21,-1,23,-1,25,27,-1,-1,29,31,-1,33,-1,35,-1,37,-1,39,-1,-1,41,-1,-1,-1,-1,-1,43,-1,45,-1,-1,-1,-1,-1],"loss_changes":[4.3755988E2,8.373175E1,7.726135E-1,1.4566956E1,4.654258E1,3.543396E-1,0E0,3.4940643E0,0E0,1.3813492E1,1.2386465E1,4.3633556E-1,0E0,1.4137878E0,0E0,3.7034225E-1,0E0,3.28203E0,5.3999605E0,0E0,0E0,1.7492218E0,2.2221944E0,0E0,4.7615623E-1,0E0,7.876875E0,0E0,2.6666382E-1,0E0,4.3354645E0,0E0,0E0,8.5711336E-1,0E0,0E0,0E0,0E0,0E0,9.599921E0,0E0,1.99997E0,0E0,0E0,0E0,0E0,0E0],"parents":[2147483647,0,0,1,1,2,2,3,3,4,4,5,5,7,7,9,9,10,10,11,11,13,13,15,15,17,17,18,18,21,21,22,22,24,24,26,26,28,28,30,30,33,33,39,39,41,41],"right_children":[2,4,6,8,10,12,-1,14,-1,16,18,20,-1,22,-1,24,-1,26,28,-1,-1,30,32,-1,34,-1,36,-1,38,-1,40,-1,-1,42,-1,-1,-1,-1,-1,44,-1,46,-1,-1,-1,-1,-1],"split_conditions":[1E0,1E0,1E0,1E0,1E0,1.2931089E1,1.1999904E-6,1E0,1.99998E-6,1.4E2,1.805582E4,-6.8684226E-1,1.9999998E-6,1E0,-0E0,1E0,-1.99998E-6,3.637586E0,1.905074E4,1.9999866E-6,1.1999904E-6,1E0,1.123372E4,1.9999973E-6,1.669823E4,-1.9999968E-6,1E0,1.9999866E-6,1E0,-1.9999995E-6,1.174242E4,-0E0,-1.999984E-6,6.6E1,1.999992E-6,-1.99999E-6,1.1999904E-6,-6.6666223E-7,-0E0,9.261691E0,-1.9999961E-6,1E0,1.9999866E-6,-1.9999866E-6,1.99998E-6,-0E0,1.99998E-6],"split_indices":[15,80,72,63,74,4,0,65,0,0,1,9,0,53,0,73,0,8,1,0,0,125,1,0,1,0,128,0,106,0,1,0,0,0,0,0,0,0,0,7,0,23,0,0,0,0,0],"split_type":[0,0,0,0,0,0,0,0,0,0,0,0,0,0,0,0,0,0,0,0,0,0,0,0,0,0,0,0,0,0,0,0,0,0,0,0,0,0,0,0,0,0,0,0,0,0,0],"sum_hessian":[1.9225E2,8.325E1,1.09E2,5.5E1,2.825E1,1.0775E2,1.25E0,5.4E1,1E0,1.45E1,1.375E1,2.75E0,1.05E2,5.3E1,1E0,1.35E1,1E0,9.75E0,4E0,1.5E0,1.25E0,5.075E1,2.25E0,7.5E0,6E0,6.5E0,3.25E0,1.5E0,2.5E0,4.3E1,7.75E0,1E0,1.25E0,3.5E0,2.5E0,2E0,1.25E0,1.5E0,1E0,2.5E0,5.25E0,2E0,1.5E0,1.5E0,1E0,1E0,1E0],"tree_param":{"num_deleted":"0","num_feature":"132","num_nodes":"47","size_leaf_vector":"0"}},{"base_weights":[6.873385E-1,-1.1441858E0,1.391771E0,-1.8344822E0,2.8571412E-1,1.4598539E0,-1.9999927E-6,-1.9432619E0,1.99998E-6,1.657141E0,-1.085713E0,-3.8709664E-1,1.9999998E-6,-1.9999993E-6,-1.5999968E0,2.8571264E-7,1.999997E-6,1.99998E-6,-1.4838691E0,-1.4594587E0,1.1999991E0,-0E0,-1.999995E-6,-1.7037011E0,-0E0,9.99995E-1,-1.7575747E0,1.5348823E0,-8.57138E-7,-1.9999966E-6,-0E0,1.99998E-6,-0E0,-1.8709666E0,-0E0,3.999984E-1,1.8787856E0,-1.9999986E-6,-0E0,-6.6666223E-7,1.99998E-6,1.9999968E-6,1.4285632E-6],"categories":[],"categories_nodes":[],"categories_segments":[],"categories_sizes":[],"default_left":[0,0,0,0,0,0,0,0,0,0,0,0,0,0,0,0,0,0,0,0,0,0,0,0,0,0,0,0,0,0,0,0,0,0,0,0,0,0,0,0,0,0,0],"id":8,"left_children":[1,3,5,7,9,11,-1,13,-1,15,17,19,-1,-1,21,-1,-1,-1,23,25,27,-1,-1,29,-1,31,33,35,-1,-1,-1,-1,-1,37,-1,39,41,-1,-1,-1,-1,-1,-1],"loss_changes":[2.4965085E2,5.3054207E1,3.22713E1,1.5120316E1,3.291425E1,1.3667435E2,0E0,6.865082E-1,0E0,4.114273E0,1.0750179E1,5.2760212E1,0E0,0E0,3.1999855E0,0E0,0E0,0E0,2.5280704E0,1.356427E1,8.611282E0,0E0,0E0,3.4073963E0,0E0,1.99997E0,3.2883644E0,4.1956177E0,0E0,0E0,0E0,0E0,0E0,3.741932E0,0E0,4.266624E0,4.501915E-1,0E0,0E0,0E0,0E0,0E0,0E0],"parents":[2147483647,0,0,1,1,2,2,3,3,4,4,5,5,7,7,9,9,10,10,11,11,14,14,18,18,19,19,20,20,23,23,25,25,26,26,27,27,33,33,35,35,36,36],"right_children":[2,4,6,8,10,12,-1,14,-1,16,18,20,-1,-1,22,-1,-1,-1,24,26,28,-1,-1,30,-1,32,34,36,-1,-1,-1,-1,-1,38,-1,40,42,-1,-1,-1,-1,-1,-1],"split_conditions":[1.2906568E1,1E0,1E0,1E0,1E0,1E0,-1.9999927E-6,1E0,1.99998E-6,9.32146E3,1.1944747E1,1E0,1.9999998E-6,-1.9999993E-6,1.2056557E1,2.8571264E-7,1.999997E-6,1.99998E-6,4.7E1,1.3006148E1,1E0,-0E0,-1.999995E-6,1E0,-0E0,1.2939034E1,1E0,1E0,-8.57138E-7,-1.9999966E-6,-0E0,1.99998E-6,-0E0,1E0,-0E0,9.723058E0,1E0,-1.9999986E-6,-0E0,-6.6666223E-7,1.99998E-6,1.9999968E-6,1.4285632E-6],"split_indices":[6,80,52,63,74,15,0,125,0,1,6,80,0,0,5,0,0,0,0,5,2,0,0,62,0,5,93,84,0,0,0,0,0,105,0,7,115,0,0,0,0,0,0],"split_type":[0,0,0,0,0,0,0,0,0,0,0,0,0,0,0,0,0,0,0,0,0,0,0,0,0,0,0,0,0,0,0,0,0,0,0,0,0,0,0,0,0,0,0],"sum_hessian":[1.935E2,5.375E1,1.3975E2,3.625E1,1.75E1,1.37E2,2.75E0,3.525E1,1E0,8.75E0,8.75E0,3.1E1,1.06E2,3.025E1,5E0,1.75E0,7E0,1E0,7.75E0,1.85E1,1.25E1,1E0,4E0,6.75E0,1E0,2E0,1.65E1,1.075E1,1.75E0,5.75E0,1E0,1E0,1E0,1.55E1,1E0,2.5E0,8.25E0,1.45E1,1E0,1.5E0,1E0,6.5E0,1.75E0],"tree_param":{"num_deleted":"0","num_feature":"132","num_nodes":"43","size_leaf_vector":"0"}},{"base_weights":[6.534161E-1,-9.641872E-1,1.9819002E0,-1.7948714E0,5.426355E-1,1.6363577E0,1.9907191E0,-1.8525342E0,-1.0588211E0,1.7260264E0,-9.999993E-1,1.9999866E-6,1.1999904E-6,1.9999998E-6,1.1999904E-6,-1.8840576E0,-1.1999952E0,-1.999992E-6,2.8571264E-7,1.9420278E0,-1.99998E-6,-1.2307683E0,1.99998E-6,-1.9540225E0,-1.5151497E0,-0E0,-1.9999866E-6,1.9999986E-6,1.4285632E-6,-1.7777758E0,-0E0,-1.9999995E-6,-1.2727226E0,-0E0,-1.7241355E0,-1.9999973E-6,-6.6666223E-7,-1.999984E-6,9.090876E-1,-1.9999886E-6,-0E0,-1.999995E-6,-1.3846111E0,1.99998E-6,2.8571264E-7,-1.9999886E-6,-6.6666223E-7],"categories":[],"categories_nodes":[],"categories_segments":[],"categories_sizes":[],"default_left":[0,0,0,0,0,0,0,0,0,0,0,0,0,0,0,0,0,0,0,0,0,0,0,0,0,0,0,0,0,0,0,0,0,0,0,0,0,0,0,0,0,0,0,0,0,0,0],"id":9,"left_children":[1,3,5,7,9,11,13,15,17,19,21,-1,-1,-1,-1,23,25,-1,-1,27,-1,29,-1,31,33,-1,-1,-1,-1,35,37,-1,39,-1,41,-1,-1,-1,43,-1,-1,-1,45,-1,-1,-1,-1],"loss_changes":[4.324783E2,1.1359125E2,3.3673096E-1,2.4828796E0,5.8873707E1,4.3633556E-1,7.9071045E-1,1.115921E0,5.378122E0,1.4688065E1,9.692263E0,0E0,0E0,0E0,0E0,1.3356781E0,2.3999743E0,0E0,0E0,5.13443E-1,0E0,8.752121E0,0E0,1.3625641E0,2.6123219E0,0E0,0E0,0E0,0E0,2.2222118E0,7.272679E0,0E0,2.5454307E0,0E0,6.790142E-1,0E0,0E0,0E0,1.8700972E0,0E0,0E0,0E0,1.4358721E0,0E0,0E0,0E0,0E0],"parents":[2147483647,0,0,1,1,2,2,3,3,4,4,5,5,6,6,7,7,8,8,9,9,10,10,15,15,16,16,19,19,21,21,23,23,24,24,29,29,30,30,32,32,34,34,38,38,42,42],"right_children":[2,4,6,8,10,12,14,16,18,20,22,-1,-1,-1,-1,24,26,-1,-1,28,-1,30,-1,32,34,-1,-1,-1,-1,36,38,-1,40,-1,42,-1,-1,-1,44,-1,-1,-1,46,-1,-1,-1,-1],"split_conditions":[1E0,1E0,1.2931089E1,1E0,1E0,1.839643E4,1E0,1E0,1.290591E1,1.4E2,1E0,1.9999866E-6,1.1999904E-6,1.9999998E-6,1.1999904E-6,1E0,9.326675E0,-1.999992E-6,2.8571264E-7,1.3817204E1,-1.99998E-6,1E0,1.99998E-6,1E0,1.2056557E1,-0E0,-1.9999866E-6,1.9999986E-6,1.4285632E-6,1E0,1E0,-1.9999995E-6,9.412275E0,-0E0,9.838929E0,-1.9999973E-6,-6.6666223E-7,-1.999984E-6,1.8E1,-1.9999886E-6,-0E0,-1.999995E-6,2.2E1,1.99998E-6,2.8571264E-7,-1.9999886E-6,-6.6666223E-7],"split_indices":[15,80,4,105,74,1,72,53,4,0,49,0,0,0,0,125,7,0,0,4,0,77,0,131,5,0,0,0,0,52,89,0,7,0,7,0,0,0,0,0,0,0,0,0,0,0,0],"split_type":[0,0,0,0,0,0,0,0,0,0,0,0,0,0,0,0,0,0,0,0,0,0,0,0,0,0,0,0,0,0,0,0,0,0,0,0,0,0,0,0,0,0,0,0,0,0,0],"sum_hessian":[2.0125E2,9.075E1,1.105E2,5.85E1,3.225E1,2.75E0,1.0775E2,5.425E1,4.25E0,1.825E1,1.4E1,1.5E0,1.25E0,1.065E2,1.25E0,5.175E1,2.5E0,2.5E0,1.75E0,1.725E1,1E0,1.3E1,1E0,4.35E1,8.25E0,1E0,1.5E0,1.55E1,1.75E0,9E0,4E0,4.075E1,2.75E0,1E0,7.25E0,7.5E0,1.5E0,1.25E0,2.75E0,1.75E0,1E0,4E0,3.25E0,1E0,1.75E0,1.75E0,1.5E0],"tree_param":{"num_deleted":"0","num_feature":"132","num_nodes":"47","size_leaf_vector":"0"}},{"base_weights":[6.766169E-1,-9.4972056E-1,1.9820626E0,-1.7288133E0,5.5737686E-1,1.9909295E0,1.1999904E-6,-1.7903928E0,2.8571264E-7,1.3488365E0,-1.3333318E0,1.7333287E0,1.9999998E-6,-1.8577775E0,1.99998E-6,-9.99995E-1,1.5897428E0,-1.6799973E0,-5.4545254E-1,1.999992E-6,1.1999904E-6,-1.9587625E0,-1.2258049E0,-1.99998E-6,-0E0,1.8620677E0,7.999984E-1,-0E0,-1.9999961E-6,-1.9999886E-6,1.99998E-6,-1.9999995E-6,-9.99995E-1,-0E0,-1.652171E0,1.1999904E-6,1.9245268E0,1.3333288E0,-0E0,-0E0,-1.99998E-6,-1.99998E-6,1.99998E-6,-1.9999943E-6,-1.1111062E0,1.9999984E-6,1.1999904E-6,1.9999866E-6,6.6666223E-7,-1.99998E-6,-3.999968E-7],"categories":[],"categories_nodes":[],"categories_segments":[],"categories_sizes":[],"default_left":[0,0,0,0,0,0,0,0,0,0,0,0,0,0,0,0,0,0,0,0,0,0,0,0,0,0,0,0,0,0,0,0,0,0,0,0,0,0,0,0,0,0,0,0,0,0,0,0,0,0,0],"id":10,"left_children":[1,3,5,7,9,11,-1,13,-1,15,17,19,-1,21,-1,23,25,27,29,-1,-1,31,33,-1,-1,35,37,-1,-1,-1,-1,-1,39,41,43,-1,45,47,-1,-1,-1,-1,-1,-1,49,-1,-1,-1,-1,-1,-1],"loss_changes":[4.267422E2,1.050881E2,7.7319336E-1,7.3191376E0,4.5640842E1,2.5756836E-1,0E0,1.4622437E1,0E0,1.2165756E1,2.458167E0,5.33309E-1,0E0,3.5898285E0,0E0,1.99997E0,4.193798E0,3.3599873E0,1.0181741E1,0E0,0E0,1.9174957E0,4.050478E0,0E0,0E0,5.9959793E-1,2.1333218E0,0E0,0E0,0E0,0E0,0E0,1.99997E0,7.99992E0,1.0820999E0,0E0,7.245102E-1,1.3333068E0,0E0,0E0,0E0,0E0,0E0,0E0,1.4221928E0,0E0,0E0,0E0,0E0,0E0,0E0],"parents":[2147483647,0,0,1,1,2,2,3,3,4,4,5,5,7,7,9,9,10,10,11,11,13,13,15,15,16,16,17,17,18,18,21,21,22,22,25,25,26,26,32,32,33,33,34,34,36,36,37,37,44,44],"right_children":[2,4,6,8,10,12,-1,14,-1,16,18,20,-1,22,-1,24,26,28,30,-1,-1,32,34,-1,-1,36,38,-1,-1,-1,-1,-1,40,42,44,-1,46,48,-1,-1,-1,-1,-1,-1,50,-1,-1,-1,-1,-1,-1],"split_conditions":[1E0,1E0,1E0,1E0,1E0,2.3E1,1.1999904E-6,1E0,2.8571264E-7,8.35155E3,1E0,1E0,1.9999998E-6,1E0,1.99998E-6,2.90171E3,1E0,6.79487E3,1.51987E4,1.999992E-6,1.1999904E-6,1E0,9.370963E0,-1.99998E-6,-0E0,1.2517016E1,1.306431E1,-0E0,-1.9999961E-6,-1.9999886E-6,1.99998E-6,-1.9999995E-6,1.123372E4,8.60988E3,2.2E1,1.1999904E-6,1.3806107E1,1.8E1,-0E0,-0E0,-1.99998E-6,-1.99998E-6,1.99998E-6,-1.9999943E-6,9.838929E0,1.9999984E-6,1.1999904E-6,1.9999866E-6,6.6666223E-7,-1.99998E-6,-3.999968E-7],"split_indices":[15,80,72,129,2,0,0,63,0,1,103,2,0,125,0,1,74,1,1,0,0,53,7,0,0,4,4,0,0,0,0,0,1,1,0,0,4,0,0,0,0,0,0,0,7,0,0,0,0,0,0],"split_type":[0,0,0,0,0,0,0,0,0,0,0,0,0,0,0,0,0,0,0,0,0,0,0,0,0,0,0,0,0,0,0,0,0,0,0,0,0,0,0,0,0,0,0,0,0,0,0,0,0,0,0],"sum_hessian":[2.01E2,8.95E1,1.115E2,5.9E1,3.05E1,1.1025E2,1.25E0,5.725E1,1.75E0,2.15E1,9E0,3.75E0,1.065E2,5.625E1,1E0,2E0,1.95E1,6.25E0,2.75E0,2.5E0,1.25E0,4.85E1,7.75E0,1E0,1E0,1.45E1,5E0,1E0,5.25E0,1.75E0,1E0,4.65E1,2E0,2E0,5.75E0,1.25E0,1.325E1,3E0,2E0,1E0,1E0,1E0,1E0,3.5E0,2.25E0,1.2E1,1.25E0,1.5E0,1.5E0,1E0,1.25E0],"tree_param":{"num_deleted":"0","num_feature":"132","num_nodes":"51","size_leaf_vector":"0"}},{"base_weights":[6.394904E-1,-9.5555544E-1,1.9905881E0,-1.7903928E0,5.0381666E-1,1.5555487E0,1.9999998E-6,-1.8923763E0,1.9999866E-6,-1.589742E0,1.3913038E0,1.99998E-6,1.1999904E-6,-1.9266051E0,-3.999968E-7,-1.9999975E-6,2.8571264E-7,-1.1999952E0,1.7073163E0,-1.9619044E0,-9.99995E-1,-0E0,-1.9999866E-6,1.9384604E0,8.2352746E-1,-1.9999995E-6,-1.4999963E0,-0E0,-1.99998E-6,1.9999986E-6,1.4285632E-6,1.3333288E0,-3.999968E-7,-0E0,-1.9999934E-6,1.9999866E-6,6.6666223E-7],"categories":[],"categories_nodes":[],"categories_segments":[],"categories_sizes":[],"default_left":[0,0,0,0,0,0,0,0,0,0,0,0,0,0,0,0,0,0,0,0,0,0,0,0,0,0,0,0,0,0,0,0,0,0,0,0,0],"id":11,"left_children":[1,3,5,7,9,11,-1,13,-1,15,17,-1,-1,19,-1,-1,-1,21,23,25,27,-1,-1,29,31,-1,33,-1,-1,-1,-1,35,-1,-1,-1,-1,-1],"loss_changes":[4.2293112E2,1.0965045E2,4.3502808E-1,2.2130402E1,6.0849747E1,3.5552502E-1,0E0,2.847824E0,0E0,7.5018177E0,1.8834335E1,0E0,0E0,1.782608E0,0E0,0E0,0E0,2.3999743E0,4.1877785E0,9.2378235E-1,1.99997E0,0E0,0E0,5.098686E-1,2.6509676E0,0E0,2.9999828E0,0E0,0E0,0E0,0E0,1.3333068E0,0E0,0E0,0E0,0E0,0E0],"parents":[2147483647,0,0,1,1,2,2,3,3,4,4,5,5,7,7,9,9,10,10,13,13,17,17,18,18,19,19,20,20,23,23,24,24,26,26,31,31],"right_children":[2,4,6,8,10,12,-1,14,-1,16,18,-1,-1,20,-1,-1,-1,22,24,26,28,-1,-1,30,32,-1,34,-1,-1,-1,-1,36,-1,-1,-1,-1,-1],"split_conditions":[1E0,1E0,1.2931089E1,1E0,1E0,1.258208E4,1.9999998E-6,1E0,1.9999866E-6,1.805582E4,9.32146E3,1.99998E-6,1.1999904E-6,1E0,-3.999968E-7,-1.9999975E-6,2.8571264E-7,1.2212154E1,1E0,1E0,1.286554E4,-0E0,-1.9999866E-6,1.3817204E1,9.854861E0,-1.9999995E-6,1.2218491E1,-0E0,-1.99998E-6,1.9999986E-6,1.4285632E-6,1.3065215E1,-3.999968E-7,-0E0,-1.9999934E-6,1.9999866E-6,6.6666223E-7],"split_indices":[15,80,4,63,77,1,0,129,0,1,1,0,0,53,0,0,0,4,74,25,1,0,0,4,7,0,6,0,0,0,0,5,0,0,0,0,0],"split_type":[0,0,0,0,0,0,0,0,0,0,0,0,0,0,0,0,0,0,0,0,0,0,0,0,0,0,0,0,0,0,0,0,0,0,0,0,0],"sum_hessian":[1.9625E2,9E1,1.0625E2,5.725E1,3.275E1,2.25E0,1.04E2,5.575E1,1.5E0,9.75E0,2.3E1,1E0,1.25E0,5.45E1,1.25E0,8E0,1.75E0,2.5E0,2.05E1,5.25E1,2E0,1E0,1.5E0,1.625E1,4.25E0,4.85E1,4E0,1E0,1E0,1.45E1,1.75E0,3E0,1.25E0,1E0,3E0,1.5E0,1.5E0],"tree_param":{"num_deleted":"0","num_feature":"132","num_nodes":"37","size_leaf_vector":"0"}},{"base_weights":[6.8030685E-1,-8.9265525E-1,1.9813082E0,-1.7828051E0,5.86466E-1,1.9905436E0,1.1999904E-6,-1.849765E0,-0E0,-1.090908E0,1.4157296E0,1.6363577E0,1.9999998E-6,-1.8846151E0,-3.999968E-7,-1.3999985E0,1.99998E-6,-9.99995E-1,1.6543201E0,1.9999866E-6,1.1999904E-6,-1.9215683E0,-0E0,-5.4545254E-1,-1.7241355E0,-0E0,-1.99998E-6,1.9365067E0,6.666652E-1,-1.9587625E0,-1.1999952E0,-0E0,-8.57138E-7,-1.9999966E-6,-3.999968E-7,1.5555487E0,1.9999986E-6,1.0769198E0,-3.999968E-7,-1.7142832E0,-1.9999995E-6,-0E0,-1.9999866E-6,1.1999904E-6,1.99998E-6,2.8571264E-7,1.9999866E-6,-1.999996E-6,-1.1111062E0,-0E0,-1.999984E-6],"categories":[],"categories_nodes":[],"categories_segments":[],"categories_sizes":[],"default_left":[0,0,0,0,0,0,0,0,0,0,0,0,0,0,0,0,0,0,0,0,0,0,0,0,0,0,0,0,0,0,0,0,0,0,0,0,0,0,0,0,0,0,0,0,0,0,0,0,0,0,0],"id":12,"left_children":[1,3,5,7,9,11,-1,13,-1,15,17,19,-1,21,-1,23,-1,25,27,-1,-1,29,-1,31,33,-1,-1,35,37,39,41,-1,-1,-1,-1,43,-1,45,-1,47,-1,-1,-1,-1,-1,-1,-1,-1,49,-1,-1],"loss_changes":[4.0007635E2,1.1652262E2,7.720947E-1,6.5955353E0,4.6250298E1,3.541565E-1,0E0,2.6904144E0,0E0,1.0509044E1,1.2824226E1,4.3633556E-1,0E0,3.621399E0,0E0,2.7698898E0,0E0,1.99997E0,5.6437225E0,0E0,0E0,1.3687286E0,0E0,4.6752816E-1,2.648264E0,0E0,0E0,3.8092804E-1,1.969222E0,4.8890686E-1,2.3999743E0,0E0,0E0,0E0,0E0,3.5552502E-1,0E0,2.373597E0,0E0,1.2063255E0,0E0,0E0,0E0,0E0,0E0,0E0,0E0,0E0,2.2221944E0,0E0,0E0],"parents":[2147483647,0,0,1,1,2,2,3,3,4,4,5,5,7,7,9,9,10,10,11,11,13,13,15,15,17,17,18,18,21,21,23,23,24,24,27,27,28,28,29,29,30,30,35,35,37,37,39,39,48,48],"right_children":[2,4,6,8,10,12,-1,14,-1,16,18,20,-1,22,-1,24,-1,26,28,-1,-1,30,-1,32,34,-1,-1,36,38,40,42,-1,-1,-1,-1,44,-1,46,-1,48,-1,-1,-1,-1,-1,-1,-1,-1,50,-1,-1],"split_conditions":[1E0,1E0,1E0,1E0,1E0,1.723284E-1,1.1999904E-6,1E0,-0E0,1E0,8.35155E3,1.839643E4,1.9999998E-6,1E0,-3.999968E-7,1.2231887E1,1.99998E-6,3E1,1E0,1.9999866E-6,1.1999904E-6,1E0,-0E0,9.2831E3,1E0,-0E0,-1.99998E-6,1.123372E4,1.905074E4,1.2060601E1,-5.893684E-1,-0E0,-8.57138E-7,-1.9999966E-6,-3.999968E-7,3.6E1,1.9999986E-6,1.2838E4,-3.999968E-7,9.62029E3,-1.9999995E-6,-0E0,-1.9999866E-6,1.1999904E-6,1.99998E-6,2.8571264E-7,1.9999866E-6,-1.999996E-6,9.462308E0,-0E0,-1.999984E-6],"split_indices":[15,80,72,129,77,9,0,53,0,49,1,1,0,65,0,4,0,0,74,0,0,131,0,1,125,0,0,1,1,6,13,0,0,0,0,0,0,1,0,1,0,0,0,0,0,0,0,0,7,0,0],"split_type":[0,0,0,0,0,0,0,0,0,0,0,0,0,0,0,0,0,0,0,0,0,0,0,0,0,0,0,0,0,0,0,0,0,0,0,0,0,0,0,0,0,0,0,0,0,0,0,0,0,0,0],"sum_hessian":[1.955E2,8.85E1,1.07E2,5.525E1,3.325E1,1.0575E2,1.25E0,5.325E1,2E0,1.1E1,2.225E1,2.75E0,1.03E2,5.2E1,1.25E0,1E1,1E0,2E0,2.025E1,1.5E0,1.25E0,5.1E1,1E0,2.75E0,7.25E0,1E0,1E0,1.575E1,4.5E0,4.85E1,2.5E0,1E0,1.75E0,6E0,1.25E0,2.25E0,1.35E1,3.25E0,1.25E0,7E0,4.15E1,1E0,1.5E0,1.25E0,1E0,1.75E0,1.5E0,4.75E0,2.25E0,1E0,1.25E0],"tree_param":{"num_deleted":"0","num_feature":"132","num_nodes":"51","size_leaf_vector":"0"}},{"base_weights":[6.2376237E-1,-1.0027099E0,1.9908882E0,-1.7685947E0,4.5669276E-1,1.6363577E0,1.9999998E-6,-1.8644065E0,1.9999866E-6,1.6825386E0,-7.499995E-1,1.9999866E-6,1.1999904E-6,-1.9266051E0,-1.1111087E0,-6.6666223E-7,1.9298232E0,-1.2558128E0,2.8571373E-1,-1.9999995E-6,-1.52941E0,-1.9999934E-6,6.6666223E-7,1.9999984E-6,1.1999904E-6,-1.5789458E0,1.1999904E-6,-1.99998E-6,8.2352746E-1,-0E0,-1.733331E0,-1.999997E-6,-3.999984E-1,1.9999866E-6,1.8181752E-1,-1.999995E-6,-1.4285673E0,6.6666223E-7,-1.99998E-6,-1.99998E-6,1.4285632E-6,-1.99999E-6,-6.6666223E-7],"categories":[],"categories_nodes":[],"categories_segments":[],"categories_sizes":[],"default_left":[0,0,0,0,0,0,0,0,0,0,0,0,0,0,0,0,0,0,0,0,0,0,0,0,0,0,0,0,0,0,0,0,0,0,0,0,0,0,0,0,0,0,0],"id":13,"left_children":[1,3,5,7,9,11,-1,13,-1,15,17,-1,-1,19,21,-1,23,25,27,-1,29,-1,-1,-1,-1,31,-1,-1,33,-1,35,-1,37,-1,39,-1,41,-1,-1,-1,-1,-1,-1],"loss_changes":[4.491657E2,1.03111015E2,3.5455322E-1,2.1845016E1,4.696522E1,4.3633556E-1,0E0,2.7643585E0,0E0,9.1495285E0,8.38205E0,0E0,0E0,1.5887451E0,7.1110787E0,0E0,7.298088E-1,8.530701E0,6.4537354E0,0E0,2.6509743E0,0E0,0E0,0E0,0E0,4.7157726E0,0E0,0E0,3.2085223E0,0E0,6.0949135E-1,0E0,4.266624E0,0E0,7.4804597E0,0E0,1.5237856E0,0E0,0E0,0E0,0E0,0E0,0E0],"parents":[2147483647,0,0,1,1,2,2,3,3,4,4,5,5,7,7,9,9,10,10,13,13,14,14,16,16,17,17,18,18,20,20,25,25,28,28,30,30,32,32,34,34,36,36],"right_children":[2,4,6,8,10,12,-1,14,-1,16,18,-1,-1,20,22,-1,24,26,28,-1,30,-1,-1,-1,-1,32,-1,-1,34,-1,36,-1,38,-1,40,-1,42,-1,-1,-1,-1,-1,-1],"split_conditions":[1E0,1E0,1.2931089E1,1E0,1E0,1.2273275E1,1.9999998E-6,1E0,1.9999866E-6,9.32146E3,1.669823E4,1.9999866E-6,1.1999904E-6,1E0,1.290591E1,-6.6666223E-7,1.3817204E1,1E0,1E0,-1.9999995E-6,1.2060601E1,-1.9999934E-6,6.6666223E-7,1.9999984E-6,1.1999904E-6,1E0,1.1999904E-6,-1.99998E-6,2.3025851E0,-0E0,1.874962E4,-1.999997E-6,1E0,1.9999866E-6,2E1,-1.999995E-6,-4.7940436E-1,6.6666223E-7,-1.99998E-6,-1.99998E-6,1.4285632E-6,-1.99999E-6,-6.6666223E-7],"split_indices":[15,80,4,63,74,4,0,105,0,1,1,0,0,125,4,0,4,128,86,0,4,0,0,0,0,77,0,0,8,0,1,0,86,0,0,0,13,0,0,0,0,0,0],"split_type":[0,0,0,0,0,0,0,0,0,0,0,0,0,0,0,0,0,0,0,0,0,0,0,0,0,0,0,0,0,0,0,0,0,0,0,0,0,0,0,0,0,0,0],"sum_hessian":[2.02E2,9.225E1,1.0975E2,6.05E1,3.175E1,2.75E0,1.07E2,5.9E1,1.5E0,1.575E1,1.6E1,1.5E0,1.25E0,5.45E1,4.5E0,1.5E0,1.425E1,1.075E1,5.25E0,4.6E1,8.5E0,3E0,1.5E0,1.3E1,1.25E0,9.5E0,1.25E0,1E0,4.25E0,1E0,7.5E0,7E0,2.5E0,1.5E0,2.75E0,4E0,3.5E0,1.5E0,1E0,1E0,1.75E0,2E0,1.5E0],"tree_param":{"num_deleted":"0","num_feature":"132","num_nodes":"43","size_leaf_vector":"0"}},{"base_weights":[6.2499994E-1,-1.0465115E0,1.9811319E0,-1.8590305E0,5.299143E-1,1.9904532E0,1.1999904E-6,-1.9282508E0,1.99998E-6,1.599999E0,-5.964908E-1,1.5555487E0,1.9999998E-6,-1.96347E0,-0E0,1.8571415E0,-1.99998E-6,-9.019601E-1,1.9999866E-6,1.99998E-6,1.1999904E-6,-1.9999995E-6,-8.57138E-7,1.9215671E0,1.1999904E-6,-1.5428554E0,4.9999875E-1,1.4285632E-6,1.9999982E-6,-1.9999968E-6,-3.999984E-1,1.3333288E0,-1.99998E-6,6.6666223E-7,-1.99998E-6,-0E0,1.99999E-6],"categories":[],"categories_nodes":[],"categories_segments":[],"categories_sizes":[],"default_left":[0,0,0,0,0,0,0,0,0,0,0,0,0,0,0,0,0,0,0,0,0,0,0,0,0,0,0,0,0,0,0,0,0,0,0,0,0],"id":14,"left_children":[1,3,5,7,9,11,-1,13,-1,15,17,19,-1,21,-1,23,-1,25,-1,-1,-1,-1,-1,27,-1,29,31,-1,-1,-1,33,35,-1,-1,-1,-1,-1],"loss_changes":[4.3522372E2,1.10155334E2,7.7182007E-1,1.5159195E1,3.5256474E1,4.348755E-1,0E0,3.7860718E0,0E0,1.388567E1,1.130233E1,3.5552502E-1,0E0,2.2126465E0,0E0,5.9270096E-1,0E0,1.1456006E1,0E0,0E0,0E0,0E0,0E0,4.9297333E-1,0E0,4.571409E0,8.333278E0,0E0,0E0,0E0,4.266624E0,2.6666446E0,0E0,0E0,0E0,0E0,0E0],"parents":[2147483647,0,0,1,1,2,2,3,3,4,4,5,5,7,7,9,9,10,10,11,11,13,13,15,15,17,17,23,23,25,25,26,26,30,30,31,31],"right_children":[2,4,6,8,10,12,-1,14,-1,16,18,20,-1,22,-1,24,-1,26,-1,-1,-1,-1,-1,28,-1,30,32,-1,-1,-1,34,36,-1,-1,-1,-1,-1],"split_conditions":[1E0,1E0,1E0,1E0,1E0,1.723284E-1,1.1999904E-6,1E0,1.99998E-6,1.02E2,1E0,1.839643E4,1.9999998E-6,1E0,-0E0,1.3817204E1,-1.99998E-6,1.669823E4,1.9999866E-6,1.99998E-6,1.1999904E-6,-1.9999995E-6,-8.57138E-7,1.2517016E1,1.1999904E-6,1E0,1.992829E4,1.4285632E-6,1.9999982E-6,-1.9999968E-6,1E0,1.805582E4,-1.99998E-6,6.6666223E-7,-1.99998E-6,-0E0,1.99999E-6],"split_indices":[15,80,72,63,74,9,0,65,0,0,128,1,0,53,0,4,0,1,0,0,0,0,0,4,0,77,1,0,0,0,86,1,0,0,0,0,0],"split_type":[0,0,0,0,0,0,0,0,0,0,0,0,0,0,0,0,0,0,0,0,0,0,0,0,0,0,0,0,0,0,0,0,0,0,0,0,0],"sum_hessian":[1.92E2,8.6E1,1.06E2,5.675E1,2.925E1,1.0475E2,1.25E0,5.575E1,1E0,1.5E1,1.425E1,2.25E0,1.025E2,5.475E1,1E0,1.4E1,1E0,1.275E1,1.5E0,1E0,1.25E0,5.3E1,1.75E0,1.275E1,1.25E0,8.75E0,4E0,1.75E0,1.1E1,6.25E0,2.5E0,3E0,1E0,1.5E0,1E0,1E0,2E0],"tree_param":{"num_deleted":"0","num_feature":"132","num_nodes":"37","size_leaf_vector":"0"}},{"base_weights":[6.767295E-1,-9.914039E-1,1.9820626E0,-1.791304E0,5.5462164E-1,1.9909295E0,1.1999904E-6,-1.8928568E0,1.9999866E-6,1.7419344E0,-7.3684156E-1,1.6363577E0,1.9999998E-6,-1.9272723E0,-0E0,-3.999968E-7,1.9298232E0,-1.0399991E0,1.4285632E-6,1.9999866E-6,1.1999904E-6,-1.9622638E0,-9.99995E-1,1.9999984E-6,1.4285632E-6,1.99998E-6,-1.3043467E0,-1.7142832E0,-1.9999995E-6,-0E0,-1.99998E-6,-1.9999966E-6,-6.086946E-1,-1.999996E-6,-9.99995E-1,-1.1578923E0,1.99998E-6,-0E0,-1.99998E-6,6.6666223E-7,-1.9999939E-6],"categories":[],"categories_nodes":[],"categories_segments":[],"categories_sizes":[],"default_left":[0,0,0,0,0,0,0,0,0,0,0,0,0,0,0,0,0,0,0,0,0,0,0,0,0,0,0,0,0,0,0,0,0,0,0,0,0,0,0,0,0],"id":15,"left_children":[1,3,5,7,9,11,-1,13,-1,15,17,19,-1,21,-1,-1,23,25,-1,-1,-1,27,29,-1,-1,-1,31,33,-1,-1,-1,-1,35,-1,37,39,-1,-1,-1,-1,-1],"loss_changes":[4.327722E2,1.07899124E2,7.7319336E-1,2.2138458E1,4.561781E1,3.5455322E-1,0E0,3.6480408E0,0E0,6.237911E0,9.354561E0,4.3633556E-1,0E0,1.7845459E0,0E0,0E0,5.0123215E-1,1.0045172E1,0E0,0E0,0E0,4.9591064E-1,1.99997E0,0E0,0E0,0E0,5.5651894E0,1.4285507E0,0E0,0E0,0E0,0E0,8.237937E0,0E0,1.99997E0,7.2982144E0,0E0,0E0,0E0,0E0,0E0],"parents":[2147483647,0,0,1,1,2,2,3,3,4,4,5,5,7,7,9,9,10,10,11,11,13,13,16,16,17,17,21,21,22,22,26,26,27,27,32,32,34,34,35,35],"right_children":[2,4,6,8,10,12,-1,14,-1,16,18,20,-1,22,-1,-1,24,26,-1,-1,-1,28,30,-1,-1,-1,32,34,-1,-1,-1,-1,36,-1,38,40,-1,-1,-1,-1,-1],"split_conditions":[1E0,1E0,1E0,1E0,1E0,1.2931089E1,1.1999904E-6,1E0,1.9999866E-6,9.140075E0,1E0,1.2273275E1,1.9999998E-6,1E0,-0E0,-3.999968E-7,1.3817204E1,1.1942582E1,1.4285632E-6,1.9999866E-6,1.1999904E-6,1.2056557E1,9.326675E0,1.9999984E-6,1.4285632E-6,1.99998E-6,1.2370867E1,9.775E3,-1.9999995E-6,-0E0,-1.99998E-6,-1.9999966E-6,1E0,-1.999996E-6,1.286554E4,1E0,1.99998E-6,-0E0,-1.99998E-6,6.6666223E-7,-1.9999939E-6],"split_indices":[15,80,72,63,74,4,0,65,0,7,128,4,0,53,0,0,4,5,0,0,0,5,7,0,0,0,4,1,0,0,0,0,49,0,1,86,0,0,0,0,0],"split_type":[0,0,0,0,0,0,0,0,0,0,0,0,0,0,0,0,0,0,0,0,0,0,0,0,0,0,0,0,0,0,0,0,0,0,0,0,0,0,0,0,0],"sum_hessian":[1.9875E2,8.725E1,1.115E2,5.75E1,2.975E1,1.1025E2,1.25E0,5.6E1,1.5E0,1.55E1,1.425E1,2.75E0,1.075E2,5.5E1,1E0,1.25E0,1.425E1,1.25E1,1.75E0,1.5E0,1.25E0,5.3E1,2E0,1.25E1,1.75E0,1E0,1.15E1,7E0,4.6E1,1E0,1E0,5.75E0,5.75E0,5E0,2E0,4.75E0,1E0,1E0,1E0,1.5E0,3.25E0],"tree_param":{"num_deleted":"0","num_feature":"132","num_nodes":"41","size_leaf_vector":"0"}},{"base_weights":[7.1032745E-1,-1.0117646E0,1.9999998E-6,-1.7533036E0,4.7787595E-1,-1.8181815E0,2.8571264E-7,1.7241367E0,-8.36363E-1,-1.9139781E0,-1.2941161E0,-0E0,1.9999984E-6,-1.3684196E0,3.5294035E-1,-1.9999995E-6,1.99998E-6,-5.4545254E-1,-1.652171E0,-1.99998E-6,1.99998E-6,-1.7575736E0,1.1999904E-6,1.99998E-6,-1.5384568E-1,-1.9999886E-6,1.99998E-6,-1.9999945E-6,-9.99995E-7,-1.9999973E-6,-0E0,-1.999984E-6,9.99995E-1,1.99998E-6,-0E0],"categories":[],"categories_nodes":[],"categories_segments":[],"categories_sizes":[],"default_left":[0,0,0,0,0,0,0,0,0,0,0,0,0,0,0,0,0,0,0,0,0,0,0,0,0,0,0,0,0,0,0,0,0,0,0],"id":16,"left_children":[1,3,-1,5,7,9,-1,11,13,15,17,19,-1,21,23,-1,-1,25,27,-1,-1,29,-1,-1,31,-1,-1,-1,-1,-1,-1,-1,33,-1,-1],"loss_changes":[4.4085556E2,9.389327E1,0E0,7.5072784E0,4.627027E1,2.7611694E0,0E0,6.8965416E0,8.700692E0,1.5655853E1,2.2785263E0,7.99992E0,0E0,9.495348E0,3.5474722E0,0E0,0E0,1.0181741E1,1.3043251E0,0E0,0E0,3.5151424E0,0E0,0E0,6.923027E0,0E0,0E0,0E0,0E0,0E0,0E0,0E0,1.99997E0,0E0,0E0],"parents":[2147483647,0,0,1,1,3,3,4,4,5,5,7,7,8,8,9,9,10,10,11,11,13,13,14,14,17,17,18,18,21,21,24,24,32,32],"right_children":[2,4,-1,6,8,10,-1,12,14,16,18,20,-1,22,24,-1,-1,26,28,-1,-1,30,-1,-1,32,-1,-1,-1,-1,-1,-1,-1,34,-1,-1],"split_conditions":[1E0,1E0,1.9999998E-6,1E0,1E0,1E0,2.8571264E-7,9.32146E3,1.669823E4,1E0,1.174242E4,1E0,1.9999984E-6,1E0,1.1942582E1,-1.9999995E-6,1.99998E-6,1.052692E4,2.2E1,-1.99998E-6,1.99998E-6,8.4E1,1.1999904E-6,1.99998E-6,1.2448089E1,-1.9999886E-6,1.99998E-6,-1.9999945E-6,-9.99995E-7,-1.9999973E-6,-0E0,-1.999984E-6,1.992829E4,1.99998E-6,-0E0],"split_indices":[15,80,0,129,74,125,0,1,1,63,1,75,0,128,5,0,0,1,0,0,0,0,0,0,5,0,0,0,0,0,0,0,1,0,0],"split_type":[0,0,0,0,0,0,0,0,0,0,0,0,0,0,0,0,0,0,0,0,0,0,0,0,0,0,0,0,0,0,0,0,0,0,0],"sum_hessian":[1.985E2,8.5E1,1.135E2,5.675E1,2.825E1,5.5E1,1.75E0,1.45E1,1.375E1,4.65E1,8.5E0,2E0,1.25E1,9.5E0,4.25E0,4.55E1,1E0,2.75E0,5.75E0,1E0,1E0,8.25E0,1.25E0,1E0,3.25E0,1.75E0,1E0,3.75E0,2E0,7.25E0,1E0,1.25E0,2E0,1E0,1E0],"tree_param":{"num_deleted":"0","num_feature":"132","num_nodes":"35","size_leaf_vector":"0"}},{"base_weights":[6.9044584E-1,-1.2399998E0,1.3504273E0,-1.5217388E0,1.999995E-6,-4.7368407E-1,1.990762E0,-1.6384177E0,1.4285632E-6,-1.648351E0,1.2786877E0,1.6363577E0,1.9999998E-6,-1.7192979E0,6.6666223E-7,-1.8072281E0,-0E0,1.7894717E0,4.3478185E-1,1.9999866E-6,1.1999904E-6,-1.8083827E0,1.99998E-6,-8.571404E-1,-1.9999989E-6,1.9999977E-6,-0E0,1.999992E-6,-7.692284E-1,-1.9393934E0,-1.3142842E0,-0E0,-1.9999866E-6,-0E0,-1.999984E-6,-1.9999993E-6,-1.5555521E0,1.1999904E-6,-1.733331E0,-0E0,-1.9999943E-6,-1.9999968E-6,-0E0],"categories":[],"categories_nodes":[],"categories_segments":[],"categories_sizes":[],"default_left":[0,0,0,0,0,0,0,0,0,0,0,0,0,0,0,0,0,0,0,0,0,0,0,0,0,0,0,0,0,0,0,0,0,0,0,0,0,0,0,0,0,0,0],"id":17,"left_children":[1,3,5,7,-1,9,11,13,-1,15,17,19,-1,21,-1,23,-1,25,27,-1,-1,29,-1,31,-1,-1,-1,-1,33,35,37,-1,-1,-1,-1,-1,39,-1,41,-1,-1,-1,-1],"loss_changes":[2.5003394E2,4.5641693E1,1.7082611E2,1.5834976E1,0E0,7.822126E1,3.5440063E-1,8.249771E0,0E0,5.957897E0,6.5735664E0,4.3633556E-1,0E0,1.4164459E1,0E0,3.800331E0,0E0,3.5789413E0,1.0836077E1,0E0,0E0,2.70253E0,0E0,3.4285388E0,0E0,0E0,0E0,0E0,3.076889E0,7.676468E-1,9.219022E0,0E0,0E0,0E0,0E0,0E0,3.1110954E0,0E0,3.4666557E0,0E0,0E0,0E0,0E0],"parents":[2147483647,0,0,1,1,2,2,3,3,5,5,6,6,7,7,9,9,10,10,11,11,13,13,15,15,17,17,18,18,21,21,23,23,28,28,29,29,30,30,36,36,38,38],"right_children":[2,4,6,8,-1,10,12,14,-1,16,18,20,-1,22,-1,24,-1,26,28,-1,-1,30,-1,32,-1,-1,-1,-1,34,36,38,-1,-1,-1,-1,-1,40,-1,42,-1,-1,-1,-1],"split_conditions":[9.029206E-2,1E0,1E0,1E0,1.999995E-6,1E0,1.723284E-1,1E0,1.4285632E-6,1E0,1E0,1.839643E4,1.9999998E-6,1E0,6.6666223E-7,1.3009291E1,-0E0,1.02E2,1.3065215E1,1.9999866E-6,1.1999904E-6,1E0,1.99998E-6,4.4E1,-1.9999989E-6,1.9999977E-6,-0E0,1.999992E-6,1E0,1E0,2.3673522E-1,-0E0,-1.9999866E-6,-0E0,-1.999984E-6,-1.9999993E-6,1.2060601E1,1.1999904E-6,4.7E1,-0E0,-1.9999943E-6,-1.9999968E-6,-0E0],"split_indices":[10,75,15,23,0,80,9,65,0,105,74,1,0,63,0,4,0,0,5,0,0,80,0,0,0,0,0,0,2,125,14,0,0,0,0,0,4,0,0,0,0,0,0],"split_type":[0,0,0,0,0,0,0,0,0,0,0,0,0,0,0,0,0,0,0,0,0,0,0,0,0,0,0,0,0,0,0,0,0,0,0,0,0,0,0,0,0,0,0],"sum_hessian":[1.9625E2,5E1,1.4625E2,4.6E1,4E0,3.8E1,1.0825E2,4.425E1,1.75E0,2.275E1,1.525E1,2.75E0,1.055E2,4.275E1,1.5E0,2.075E1,2E0,9.5E0,5.75E0,1.5E0,1.25E0,4.175E1,1E0,3.5E0,1.725E1,8.5E0,1E0,2.5E0,3.25E0,3.3E1,8.75E0,2E0,1.5E0,2E0,1.25E0,2.85E1,4.5E0,1.25E0,7.5E0,1E0,3.5E0,6.5E0,1E0],"tree_param":{"num_deleted":"0","num_feature":"132","num_nodes":"43","size_leaf_vector":"0"}},{"base_weights":[6.8679243E-1,-9.515668E-1,1.9819818E0,-1.8565019E0,6.249998E-1,1.9908882E0,1.1999904E-6,-1.9269403E0,1.99998E-6,-1.1794859E0,1.4157296E0,1.6363577E0,1.9999998E-6,-1.9627904E0,-0E0,-1.5428554E0,1.99998E-6,-1.1111062E0,1.6999991E0,1.9999866E-6,1.1999904E-6,-1.9999995E-6,-1.3846111E0,-6.666644E-1,-1.9999966E-6,-0E0,-1.999984E-6,1.9365067E0,8.2352746E-1,-0E0,-1.9999911E-6,-0E0,-9.99995E-1,1.5555487E0,1.9999986E-6,1.8181752E-1,1.9999866E-6,-0E0,-1.99998E-6,1.1999904E-6,1.99998E-6,1.1999904E-6,-6.6666223E-7],"categories":[],"categories_nodes":[],"categories_segments":[],"categories_sizes":[],"default_left":[0,0,0,0,0,0,0,0,0,0,0,0,0,0,0,0,0,0,0,0,0,0,0,0,0,0,0,0,0,0,0,0,0,0,0,0,0,0,0,0,0,0,0],"id":18,"left_children":[1,3,5,7,9,11,-1,13,-1,15,17,19,-1,21,-1,23,-1,25,27,-1,-1,-1,29,31,-1,-1,-1,33,35,-1,-1,-1,37,39,-1,41,-1,-1,-1,-1,-1,-1,-1],"loss_changes":[4.2174466E2,1.25192116E2,7.730713E-1,1.5144211E1,4.565958E1,3.5455322E-1,0E0,3.7821655E0,0E0,1.126442E1,1.598225E1,4.3633556E-1,0E0,1.156311E0,0E0,3.5047398E0,0E0,2.2221944E0,4.1458282E0,0E0,0E0,0E0,2.7692099E0,6.6666114E-1,0E0,0E0,0E0,3.8092804E-1,3.2085223E0,0E0,0E0,0E0,1.99997E0,3.5552502E-1,0E0,2.3757389E0,0E0,0E0,0E0,0E0,0E0,0E0,0E0],"parents":[2147483647,0,0,1,1,2,2,3,3,4,4,5,5,7,7,9,9,10,10,11,11,13,13,15,15,17,17,18,18,22,22,23,23,27,27,28,28,32,32,33,33,35,35],"right_children":[2,4,6,8,10,12,-1,14,-1,16,18,20,-1,22,-1,24,-1,26,28,-1,-1,-1,30,32,-1,-1,-1,34,36,-1,-1,-1,38,40,-1,42,-1,-1,-1,-1,-1,-1,-1],"split_conditions":[1E0,1E0,1E0,1E0,1E0,1.2931089E1,1.1999904E-6,1E0,1.99998E-6,1E0,8.35155E3,1.2273275E1,1.9999998E-6,1E0,-0E0,1.2231887E1,1.99998E-6,3E1,1E0,1.9999866E-6,1.1999904E-6,-1.9999995E-6,1.2218491E1,1E0,-1.9999966E-6,-0E0,-1.999984E-6,1.123372E4,2.6E1,-0E0,-1.9999911E-6,-0E0,9.2831E3,3.6E1,1.9999986E-6,1.2437331E1,1.9999866E-6,-0E0,-1.99998E-6,1.1999904E-6,1.99998E-6,1.1999904E-6,-6.6666223E-7],"split_indices":[15,80,72,63,77,4,0,65,0,49,1,4,0,25,0,4,0,0,74,0,0,0,6,100,0,0,0,1,0,0,0,0,1,0,0,5,0,0,0,0,0,0,0],"split_type":[0,0,0,0,0,0,0,0,0,0,0,0,0,0,0,0,0,0,0,0,0,0,0,0,0,0,0,0,0,0,0,0,0,0,0,0,0,0,0,0,0,0,0],"sum_hessian":[1.9875E2,8.775E1,1.11E2,5.575E1,3.2E1,1.0975E2,1.25E0,5.475E1,1E0,9.75E0,2.225E1,2.75E0,1.07E2,5.375E1,1E0,8.75E0,1E0,2.25E0,2E1,1.5E0,1.25E0,5.05E1,3.25E0,3E0,5.75E0,1E0,1.25E0,1.575E1,4.25E0,1E0,2.25E0,1E0,2E0,2.25E0,1.35E1,2.75E0,1.5E0,1E0,1E0,1.25E0,1E0,1.25E0,1.5E0],"tree_param":{"num_deleted":"0","num_feature":"132","num_nodes":"43","size_leaf_vector":"0"}},{"base_weights":[6.7002517E-1,-9.942856E-1,1.9819818E0,-1.7554582E0,4.4628084E-1,1.5555487E0,1.9908044E0,-1.8222219E0,1.99998E-6,1.6721301E0,-7.999995E-1,1.99998E-6,1.1999904E-6,1.9999998E-6,1.6363577E0,-1.8552033E0,-0E0,-1.99998E-6,1.9298232E0,-1.3999985E0,3.999992E-1,1.1999904E-6,1.9999866E-6,-1.9211819E0,-1.1111087E0,1.1999904E-6,1.9999984E-6,-1.7777758E0,1.99998E-6,-1.99998E-6,9.999975E-1,-1.958974E0,-9.99995E-1,-1.9999939E-6,1.1999904E-6,-1.9999975E-6,-0E0,3.999984E-1,1.9999866E-6,-1.9999995E-6,-1.3846111E0,-0E0,-1.99998E-6,-1.99998E-6,1.9999866E-6,-0E0,-1.9999911E-6],"categories":[],"categories_nodes":[],"categories_segments":[],"categories_sizes":[],"default_left":[0,0,0,0,0,0,0,0,0,0,0,0,0,0,0,0,0,0,0,0,0,0,0,0,0,0,0,0,0,0,0,0,0,0,0,0,0,0,0,0,0,0,0,0,0,0,0],"id":19,"left_children":[1,3,5,7,9,11,13,15,-1,17,19,-1,-1,-1,21,23,-1,-1,25,27,29,-1,-1,31,33,-1,-1,35,-1,-1,37,39,41,-1,-1,-1,-1,43,-1,-1,45,-1,-1,-1,-1,-1,-1],"loss_changes":[4.3342554E2,9.59455E1,4.1760254E-1,1.4354141E1,4.621452E1,3.5552502E-1,3.5443115E-1,3.3806E0,0E0,1.4430782E1,1.0799987E1,0E0,0E0,0E0,4.3633556E-1,2.7124329E0,0E0,0E0,7.298088E-1,1.2844393E1,7.1999516E0,0E0,0E0,1.7667542E0,9.244402E0,0E0,0E0,3.5555496E0,0E0,0E0,2.3999681E0,1.1486816E0,1.99997E0,0E0,0E0,0E0,0E0,9.599921E0,0E0,0E0,2.7692099E0,0E0,0E0,0E0,0E0,0E0,0E0],"parents":[2147483647,0,0,1,1,2,2,3,3,4,4,5,5,6,6,7,7,9,9,10,10,14,14,15,15,18,18,19,19,20,20,23,23,24,24,27,27,30,30,31,31,32,32,37,37,40,40],"right_children":[2,4,6,8,10,12,14,16,-1,18,20,-1,-1,-1,22,24,-1,-1,26,28,30,-1,-1,32,34,-1,-1,36,-1,-1,38,40,42,-1,-1,-1,-1,44,-1,-1,46,-1,-1,-1,-1,-1,-1],"split_conditions":[1E0,1E0,1.2931089E1,1E0,1E0,1.258208E4,1E0,1E0,1.99998E-6,4.5181E3,1E0,1.99998E-6,1.1999904E-6,1.9999998E-6,4.6E1,1E0,-0E0,-1.99998E-6,9.140075E0,1E0,1E0,1.1999904E-6,1.9999866E-6,1E0,1.2899332E1,1.1999904E-6,1.9999984E-6,1E0,1.99998E-6,-1.99998E-6,3.6635616E0,1E0,4.4E1,-1.9999939E-6,1.1999904E-6,-1.9999975E-6,-0E0,1E0,1.9999866E-6,-1.9999995E-6,1.2219975E1,-0E0,-1.99998E-6,-1.99998E-6,1.9999866E-6,-0E0,-1.9999911E-6],"split_indices":[15,80,4,63,74,1,124,65,0,1,77,0,0,0,0,105,0,0,7,49,104,0,0,53,4,0,0,19,0,0,8,25,0,0,0,0,0,106,0,0,5,0,0,0,0,0,0],"split_type":[0,0,0,0,0,0,0,0,0,0,0,0,0,0,0,0,0,0,0,0,0,0,0,0,0,0,0,0,0,0,0,0,0,0,0,0,0,0,0,0,0,0,0,0,0,0,0],"sum_hessian":[1.985E2,8.75E1,1.11E2,5.725E1,3.025E1,2.25E0,1.0875E2,5.625E1,1E0,1.525E1,1.5E1,1E0,1.25E0,1.06E2,2.75E0,5.525E1,1E0,1E0,1.425E1,1E1,5E0,1.25E0,1.5E0,5.075E1,4.5E0,1.25E0,1.3E1,9E0,1E0,1E0,4E0,4.875E1,2E0,3.25E0,1.25E0,8E0,1E0,2.5E0,1.5E0,4.55E1,3.25E0,1E0,1E0,1E0,1.5E0,1E0,2.25E0],"tree_param":{"num_deleted":"0","num_feature":"132","num_nodes":"47","size_leaf_vector":"0"}},{"base_weights":[7.381242E-1,-8.988763E-1,1.9913976E0,-1.6249995E0,-4.9122798E-1,1.5555487E0,1.9999998E-6,-1.7419349E0,1.99998E-6,-1.7499994E0,1.1199995E0,1.99998E-6,1.1999904E-6,-1.8571422E0,-6.666644E-1,-1.9344256E0,1.9999866E-6,1.9365067E0,-2.7027E-1,-1.9223293E0,-1.1111062E0,-1.9999866E-6,6.6666223E-7,-1.9999993E-6,-3.999968E-7,1.9999986E-6,1.4285632E-6,8.571404E-1,-9.565201E-1,-1.999999E-6,-1.1999952E0,-1.999984E-6,-0E0,3.999984E-1,1.99998E-6,-1.9999945E-6,9.99995E-1,-1.9999866E-6,-0E0,1.1999904E-6,-3.999968E-7,-0E0,1.99998E-6],"categories":[],"categories_nodes":[],"categories_segments":[],"categories_sizes":[],"default_left":[0,0,0,0,0,0,0,0,0,0,0,0,0,0,0,0,0,0,0,0,0,0,0,0,0,0,0,0,0,0,0,0,0,0,0,0,0,0,0,0,0,0,0],"id":20,"left_children":[1,3,5,7,9,11,-1,13,-1,15,17,-1,-1,19,21,23,-1,25,27,29,31,-1,-1,-1,-1,-1,-1,33,35,-1,37,-1,-1,39,-1,-1,41,-1,-1,-1,-1,-1,-1],"loss_changes":[4.210929E2,2.6344246E1,4.3582153E-1,1.3564476E1,1.15605576E2,3.5552502E-1,0E0,3.8402405E0,0E0,2.2131111E1,2.837914E1,0E0,0E0,1.3616714E0,5.3332934E0,3.0688553E0,0E0,5.079155E-1,7.156606E0,1.4446411E0,2.2221944E0,0E0,0E0,0E0,0E0,0E0,0E0,1.828537E0,1.173909E1,0E0,2.3999743E0,0E0,0E0,1.5999855E0,0E0,0E0,1.99997E0,0E0,0E0,0E0,0E0,0E0,0E0],"parents":[2147483647,0,0,1,1,2,2,3,3,4,4,5,5,7,7,9,9,10,10,13,13,14,14,15,15,17,17,18,18,19,19,20,20,27,27,28,28,30,30,33,33,36,36],"right_children":[2,4,6,8,10,12,-1,14,-1,16,18,-1,-1,20,22,24,-1,26,28,30,32,-1,-1,-1,-1,-1,-1,34,36,-1,38,-1,-1,40,-1,-1,42,-1,-1,-1,-1,-1,-1],"split_conditions":[1E0,1.101899E4,1.723284E-1,1E0,1E0,1.839643E4,1.9999998E-6,1E0,1.99998E-6,1E0,1E0,1.99998E-6,1.1999904E-6,1E0,8.99565E3,1E0,1.9999866E-6,1.3806107E1,1E0,1E0,1E0,-1.9999866E-6,6.6666223E-7,-1.9999993E-6,-3.999968E-7,1.9999986E-6,1.4285632E-6,3.8E1,1E0,-1.999999E-6,3.3322046E0,-1.999984E-6,-0E0,1.8E1,1.99998E-6,-1.9999945E-6,1E0,-1.9999866E-6,-0E0,1.1999904E-6,-3.999968E-7,-0E0,1.99998E-6],"split_indices":[15,1,9,75,80,1,0,125,0,63,74,0,0,128,1,40,0,4,2,115,2,0,0,0,0,0,0,0,101,0,8,0,0,0,0,0,49,0,0,0,0,0,0],"split_type":[0,0,0,0,0,0,0,0,0,0,0,0,0,0,0,0,0,0,0,0,0,0,0,0,0,0,0,0,0,0,0,0,0,0,0,0,0,0,0,0,0,0,0],"sum_hessian":[2.0525E2,8.9E1,1.1625E2,3.2E1,5.7E1,2.25E0,1.14E2,3.1E1,1E0,3.2E1,2.5E1,1E0,1.25E0,2.8E1,3E0,3.05E1,1.5E0,1.575E1,9.25E0,2.575E1,2.25E0,1.5E0,1.5E0,2.925E1,1.25E0,1.4E1,1.75E0,3.5E0,5.75E0,2.325E1,2.5E0,1.25E0,1E0,2.5E0,1E0,3.75E0,2E0,1.5E0,1E0,1.25E0,1.25E0,1E0,1E0],"tree_param":{"num_deleted":"0","num_feature":"132","num_nodes":"43","size_leaf_vector":"0"}},{"base_weights":[6.899128E-1,-1.1416306E0,1.4385964E0,-1.7452224E0,1.052631E-1,-6.229506E-1,1.9999998E-6,-1.8431368E0,1.99998E-6,1.6363616E0,-1.0697664E0,-8.0701727E-1,1.99999E-6,-1.9432619E0,-6.666644E-1,2.8571264E-7,1.9999968E-6,1.99998E-6,-1.384614E0,-1.8873229E0,9.767433E-1,-1.9999993E-6,-9.99995E-1,1.1999904E-6,-1.9999886E-6,-1.5428554E0,-0E0,-1.9999989E-6,-3.999968E-7,-1.9999866E-6,1.4594579E0,-1.99998E-6,-0E0,-1.9999961E-6,-8.571404E-1,2.8571264E-7,1.733331E0,2.8571264E-7,-1.9999886E-6,-0E0,1.9999968E-6],"categories":[],"categories_nodes":[],"categories_segments":[],"categories_sizes":[],"default_left":[0,0,0,0,0,0,0,0,0,0,0,0,0,0,0,0,0,0,0,0,0,0,0,0,0,0,0,0,0,0,0,0,0,0,0,0,0,0,0,0,0],"id":21,"left_children":[1,3,5,7,9,11,-1,13,-1,15,17,19,-1,21,23,-1,-1,-1,25,27,29,-1,31,-1,-1,33,-1,-1,-1,-1,35,-1,-1,-1,37,-1,39,-1,-1,-1,-1],"loss_changes":[2.7527777E2,4.383982E1,1.6492377E2,1.4393364E1,3.418267E1,1.4725296E1,0E0,4.505615E0,0E0,4.0519333E0,1.03899355E1,5.4919727E1,0E0,1.8865051E0,7.466617E0,0E0,0E0,0E0,2.136259E0,2.9746437E0,1.5446836E1,0E0,1.99997E0,0E0,0E0,2.7428322E0,0E0,0E0,0E0,0E0,2.9734802E0,0E0,0E0,0E0,4.571395E0,0E0,3.4666557E0,0E0,0E0,0E0,0E0],"parents":[2147483647,0,0,1,1,2,2,3,3,4,4,5,5,7,7,9,9,10,10,11,11,13,13,14,14,18,18,19,19,20,20,22,22,25,25,30,30,34,34,36,36],"right_children":[2,4,6,8,10,12,-1,14,-1,16,18,20,-1,22,24,-1,-1,-1,26,28,30,-1,32,-1,-1,34,-1,-1,-1,-1,36,-1,-1,-1,38,-1,40,-1,-1,-1,-1],"split_conditions":[1.3021568E1,1E0,1E0,1E0,1E0,1E0,1.9999998E-6,1.2931089E1,1.99998E-6,9.32146E3,1.1942582E1,1E0,1.99999E-6,1E0,2.4E1,2.8571264E-7,1.9999968E-6,1.99998E-6,4.6E1,1E0,1E0,-1.9999993E-6,1.039394E4,1.1999904E-6,-1.9999886E-6,1.2370867E1,-0E0,-1.9999989E-6,-3.999968E-7,-1.9999866E-6,1E0,-1.99998E-6,-0E0,-1.9999961E-6,1E0,2.8571264E-7,1E0,2.8571264E-7,-1.9999886E-6,-0E0,1.9999968E-6],"split_indices":[5,80,15,63,74,72,0,5,0,1,5,80,0,25,0,0,0,0,0,40,77,0,1,0,0,4,0,0,0,0,84,0,0,0,107,0,107,0,0,0,0],"split_type":[0,0,0,0,0,0,0,0,0,0,0,0,0,0,0,0,0,0,0,0,0,0,0,0,0,0,0,0,0,0,0,0,0,0,0,0,0,0,0,0,0],"sum_hessian":[2.0075E2,5.825E1,1.425E2,3.925E1,1.9E1,3.05E1,1.12E2,3.825E1,1E0,8.25E0,1.075E1,2.85E1,2E0,3.525E1,3E0,1.75E0,6.5E0,1E0,9.75E0,1.775E1,1.075E1,3.325E1,2E0,1.25E0,1.75E0,8.75E0,1E0,1.65E1,1.25E0,1.5E0,9.25E0,1E0,1E0,5.25E0,3.5E0,1.75E0,7.5E0,1.75E0,1.75E0,1E0,6.5E0],"tree_param":{"num_deleted":"0","num_feature":"132","num_nodes":"41","size_leaf_vector":"0"}},{"base_weights":[6.4356434E-1,-9.5652163E-1,1.981818E0,-1.7627115E0,4.8484835E-1,1.9908044E0,1.1999904E-6,-1.8275859E0,1.99998E-6,-1.1489352E0,1.3882346E0,1.5555487E0,1.9999998E-6,-1.8596488E0,-0E0,-1.4418591E0,1.99998E-6,-1.9999866E-6,1.6455687E0,1.99998E-6,1.1999904E-6,-1.8923763E0,-3.999968E-7,-6.666644E-1,-1.7419332E0,1.8709666E0,8.2352746E-1,-1.9583329E0,-1.4838691E0,2.8571264E-7,-1.999984E-6,-1.9999968E-6,-3.999968E-7,1.9272714E0,1.4285632E-6,1.99998E-6,4.6153703E-1,-1.9999995E-6,-9.99995E-1,-5.4545254E-1,-1.999996E-6,1.5555487E0,1.9999982E-6,-3.999968E-7,9.99995E-7,-0E0,-1.99998E-6,-1.9999886E-6,1.99998E-6,1.1999904E-6,1.99998E-6],"categories":[],"categories_nodes":[],"categories_segments":[],"categories_sizes":[],"default_left":[0,0,0,0,0,0,0,0,0,0,0,0,0,0,0,0,0,0,0,0,0,0,0,0,0,0,0,0,0,0,0,0,0,0,0,0,0,0,0,0,0,0,0,0,0,0,0,0,0,0,0],"id":22,"left_children":[1,3,5,7,9,11,-1,13,-1,15,17,19,-1,21,-1,23,-1,-1,25,-1,-1,27,-1,29,31,33,35,37,39,-1,-1,-1,-1,41,-1,-1,43,-1,45,47,-1,49,-1,-1,-1,-1,-1,-1,-1,-1,-1],"loss_changes":[4.325469E2,1.06905655E2,7.7285767E-1,1.4402039E1,4.8705975E1,4.352417E-1,0E0,3.3986664E0,0E0,1.0838153E1,1.8528027E1,3.5552502E-1,0E0,2.722931E0,0E0,2.5006104E0,0E0,0E0,3.6593933E0,0E0,0E0,1.5020752E0,0E0,3.8094873E0,2.6838608E0,3.8607025E-1,1.8099194E0,1.9166412E0,3.753645E0,0E0,0E0,0E0,0E0,3.7169266E-1,0E0,0E0,1.5076828E0,0E0,1.99997E0,1.0181741E1,0E0,3.5552502E-1,0E0,0E0,0E0,0E0,0E0,0E0,0E0,0E0,0E0],"parents":[2147483647,0,0,1,1,2,2,3,3,4,4,5,5,7,7,9,9,10,10,11,11,13,13,15,15,18,18,21,21,23,23,24,24,25,25,26,26,27,27,28,28,33,33,36,36,38,38,39,39,41,41],"right_children":[2,4,6,8,10,12,-1,14,-1,16,18,20,-1,22,-1,24,-1,-1,26,-1,-1,28,-1,30,32,34,36,38,40,-1,-1,-1,-1,42,-1,-1,44,-1,46,48,-1,50,-1,-1,-1,-1,-1,-1,-1,-1,-1],"split_conditions":[1E0,1E0,1E0,1E0,1E0,1.2931089E1,1.1999904E-6,1E0,1.99998E-6,1E0,8.35155E3,1.258208E4,1.9999998E-6,1E0,-0E0,1.2231887E1,1.99998E-6,-1.9999866E-6,1E0,1.99998E-6,1.1999904E-6,1E0,-3.999968E-7,1E0,1E0,1.3817204E1,1E1,1E0,1.174242E4,2.8571264E-7,-1.999984E-6,-1.9999968E-6,-3.999968E-7,1.123372E4,1.4285632E-6,1.99998E-6,3.6E1,-1.9999995E-6,1.123372E4,1.052692E4,-1.999996E-6,6.8E1,1.9999982E-6,-3.999968E-7,9.99995E-7,-0E0,-1.99998E-6,-1.9999886E-6,1.99998E-6,1.1999904E-6,1.99998E-6],"split_indices":[15,80,72,63,77,4,0,65,0,49,1,1,0,129,0,4,0,0,74,0,0,125,0,111,125,4,0,53,1,0,0,0,0,1,0,0,0,0,1,1,0,0,0,0,0,0,0,0,0,0,0],"split_type":[0,0,0,0,0,0,0,0,0,0,0,0,0,0,0,0,0,0,0,0,0,0,0,0,0,0,0,0,0,0,0,0,0,0,0,0,0,0,0,0,0,0,0,0,0,0,0,0,0,0,0],"sum_hessian":[2.02E2,9.2E1,1.1E2,5.9E1,3.3E1,1.0875E2,1.25E0,5.8E1,1E0,1.175E1,2.125E1,2.25E0,1.065E2,5.7E1,1E0,1.075E1,1E0,1.5E0,1.975E1,1E0,1.25E0,5.575E1,1.25E0,3E0,7.75E0,1.55E1,4.25E0,4.8E1,7.75E0,1.75E0,1.25E0,6.5E0,1.25E0,1.375E1,1.75E0,1E0,3.25E0,4.6E1,2E0,2.75E0,5E0,2.25E0,1.15E1,1.25E0,2E0,1E0,1E0,1.75E0,1E0,1.25E0,1E0],"tree_param":{"num_deleted":"0","num_feature":"132","num_nodes":"51","size_leaf_vector":"0"}},{"base_weights":[6.666666E-1,-9.041095E-1,1.9816512E0,5.8461523E-1,-1.7276592E0,1.9907191E0,1.1999904E-6,-1.0697664E0,1.4022982E0,-1.8253272E0,1.9999866E-6,1.5555487E0,1.9999998E-6,-1.52941E0,6.666637E-1,-9.99995E-1,1.6455687E0,-1.9187813E0,-1.2499985E0,1.99998E-6,1.1999904E-6,-1.733331E0,-0E0,-3.999968E-7,1.99998E-6,-0E0,-1.99998E-6,1.9322021E0,7.999984E-1,-1.9576715E0,-9.99995E-1,-8.571412E-1,-1.9999927E-6,-1.9999966E-6,-6.6666223E-7,1.9999984E-6,1.4285632E-6,1.1999968E0,-3.999968E-7,-1.9999995E-6,-1.7948699E0,-1.99998E-6,-0E0,6.6666223E-7,-1.4666628E0,-0E0,1.6363577E0,-1.999997E-6,-1.2727226E0,-1.999992E-6,-3.999968E-7,1.9999866E-6,1.1999904E-6,-0E0,-1.9999886E-6],"categories":[],"categories_nodes":[],"categories_segments":[],"categories_sizes":[],"default_left":[0,0,0,0,0,0,0,0,0,0,0,0,0,0,0,0,0,0,0,0,0,0,0,0,0,0,0,0,0,0,0,0,0,0,0,0,0,0,0,0,0,0,0,0,0,0,0,0,0,0,0,0,0,0,0],"id":23,"left_children":[1,3,5,7,9,11,-1,13,15,17,-1,19,-1,21,23,25,27,29,31,-1,-1,33,-1,-1,-1,-1,-1,35,37,39,41,43,-1,-1,-1,-1,-1,45,-1,-1,47,-1,-1,-1,49,-1,51,-1,53,-1,-1,-1,-1,-1,-1],"loss_changes":[4.1362573E2,1.1187607E2,7.726135E-1,4.396472E1,2.1389221E1,4.3515015E-1,0E0,8.580012E0,1.271088E1,3.078125E0,0E0,3.5552502E-1,0E0,2.6509743E0,3.1999629E0,1.99997E0,4.78677E0,1.7597809E0,2.357111E0,0E0,0E0,2.133318E0,0E0,0E0,0E0,0E0,0E0,5.036087E-1,2.3999906E0,3.2556152E-1,1.99997E0,4.876172E0,0E0,0E0,0E0,0E0,0E0,1.9636235E0,0E0,0E0,1.0442657E0,0E0,0E0,0E0,2.1333132E0,0E0,4.3633556E-1,0E0,2.5454307E0,0E0,0E0,0E0,0E0,0E0,0E0],"parents":[2147483647,0,0,1,1,2,2,3,3,4,4,5,5,7,7,8,8,9,9,11,11,13,13,14,14,15,15,16,16,17,17,18,18,21,21,27,27,28,28,29,29,30,30,31,31,37,37,40,40,44,44,46,46,48,48],"right_children":[2,4,6,8,10,12,-1,14,16,18,-1,20,-1,22,24,26,28,30,32,-1,-1,34,-1,-1,-1,-1,-1,36,38,40,42,44,-1,-1,-1,-1,-1,46,-1,-1,48,-1,-1,-1,50,-1,52,-1,54,-1,-1,-1,-1,-1,-1],"split_conditions":[1E0,1E0,1E0,1E0,1E0,1.723284E-1,1.1999904E-6,7.853308E-1,9.32146E3,1E0,1.9999866E-6,1.258208E4,1.9999998E-6,1E0,1E0,1.2212154E1,1E0,1E0,1E0,1.99998E-6,1.1999904E-6,1.51987E4,-0E0,-3.999968E-7,1.99998E-6,-0E0,-1.99998E-6,1.3817204E1,9.854861E0,1E0,1.514773E4,1.174242E4,-1.9999927E-6,-1.9999966E-6,-6.6666223E-7,1.9999984E-6,1.4285632E-6,1.134889E4,-3.999968E-7,-1.9999995E-6,4.2E1,-1.99998E-6,-0E0,6.6666223E-7,2.2E1,-0E0,1.427167E4,-1.999997E-6,1.3358226E1,-1.999992E-6,-3.999968E-7,1.9999866E-6,1.1999904E-6,-0E0,-1.9999886E-6],"split_indices":[15,81,72,77,63,9,0,12,1,125,0,1,0,52,49,4,74,49,106,0,0,1,0,0,0,0,0,4,7,115,1,1,0,0,0,0,0,1,0,0,0,0,0,0,0,0,1,0,4,0,0,0,0,0,0],"split_type":[0,0,0,0,0,0,0,0,0,0,0,0,0,0,0,0,0,0,0,0,0,0,0,0,0,0,0,0,0,0,0,0,0,0,0,0,0,0,0,0,0,0,0,0,0,0,0,0,0,0,0,0,0,0,0],"sum_hessian":[2.0025E2,9.125E1,1.09E2,3.25E1,5.875E1,1.0775E2,1.25E0,1.075E1,2.175E1,5.725E1,1.5E0,2.25E0,1.055E2,8.5E0,2.25E0,2E0,1.975E1,4.925E1,8E0,1E0,1.25E0,7.5E0,1E0,1.25E0,1E0,1E0,1E0,1.475E1,5E0,4.725E1,2E0,5.25E0,2.75E0,6E0,1.5E0,1.3E1,1.75E0,3.75E0,1.25E0,3.75E1,9.75E0,1E0,1E0,1.5E0,3.75E0,1E0,2.75E0,7E0,2.75E0,2.5E0,1.25E0,1.5E0,1.25E0,1E0,1.75E0],"tree_param":{"num_deleted":"0","num_feature":"132","num_nodes":"55","size_leaf_vector":"0"}},{"base_weights":[6.398996E-1,-1.0309858E0,1.9819002E0,-1.8297869E0,5.333332E-1,1.9908465E0,1.1999904E-6,-1.8951962E0,6.6666223E-7,1.7014915E0,-9.433955E-1,1.5555487E0,1.9999998E-6,-1.9288886E0,-0E0,-6.6666223E-7,1.934425E0,1.99998E-6,-1.1836725E0,1.99998E-6,1.1999904E-6,-1.9631333E0,-9.99995E-1,1.9999986E-6,1.1999904E-6,-1.4666654E0,1.99998E-6,-1.9999995E-6,-1.4666628E0,-0E0,-1.99998E-6,-1.9999977E-6,1.8181752E-1,-6.6666223E-7,-1.9999911E-6,1.99998E-6,-8.57138E-7],"categories":[],"categories_nodes":[],"categories_segments":[],"categories_sizes":[],"default_left":[0,0,0,0,0,0,0,0,0,0,0,0,0,0,0,0,0,0,0,0,0,0,0,0,0,0,0,0,0,0,0,0,0,0,0,0,0],"id":24,"left_children":[1,3,5,7,9,11,-1,13,-1,15,17,19,-1,21,-1,-1,23,-1,25,-1,-1,27,29,-1,-1,31,-1,-1,33,-1,-1,-1,35,-1,-1,-1,-1],"loss_changes":[4.4678415E2,1.1090023E2,7.729492E-1,9.593353E0,5.1751625E1,4.3530273E-1,0E0,3.6556244E0,0E0,9.239693E0,9.370768E0,3.5552502E-1,0E0,1.7892609E0,0E0,0E0,7.3440933E-1,0E0,1.1036688E1,0E0,0E0,9.9290466E-1,1.99997E0,0E0,0E0,9.890892E0,0E0,0E0,1.5999765E0,0E0,0E0,0E0,5.1947584E0,0E0,0E0,0E0,0E0],"parents":[2147483647,0,0,1,1,2,2,3,3,4,4,5,5,7,7,9,9,10,10,11,11,13,13,16,16,18,18,21,21,22,22,25,25,28,28,32,32],"right_children":[2,4,6,8,10,12,-1,14,-1,16,18,20,-1,22,-1,-1,24,-1,26,-1,-1,28,30,-1,-1,32,-1,-1,34,-1,-1,-1,36,-1,-1,-1,-1],"split_conditions":[1E0,1E0,1E0,1E0,1E0,1.2931089E1,1.1999904E-6,1E0,6.6666223E-7,9.32146E3,1.1942582E1,1.258208E4,1.9999998E-6,1E0,-0E0,-6.6666223E-7,1.3817204E1,1.99998E-6,1E0,1.99998E-6,1.1999904E-6,1E0,9.326675E0,1.9999986E-6,1.1999904E-6,9.801224E0,1.99998E-6,-1.9999995E-6,-3.6849216E-1,-0E0,-1.99998E-6,-1.9999977E-6,1.905074E4,-6.6666223E-7,-1.9999911E-6,1.99998E-6,-8.57138E-7],"split_indices":[15,80,72,129,74,4,0,65,0,1,5,1,0,53,0,0,4,0,128,0,0,25,7,0,0,7,0,0,9,0,0,0,1,0,0,0,0],"split_type":[0,0,0,0,0,0,0,0,0,0,0,0,0,0,0,0,0,0,0,0,0,0,0,0,0,0,0,0,0,0,0,0,0,0,0,0,0],"sum_hessian":[1.9925E2,8.875E1,1.105E2,5.875E1,3E1,1.0925E2,1.25E0,5.725E1,1.5E0,1.675E1,1.325E1,2.25E0,1.07E2,5.625E1,1E0,1.5E0,1.525E1,1E0,1.225E1,1E0,1.25E0,5.425E1,2E0,1.4E1,1.25E0,1.125E1,1E0,5.05E1,3.75E0,1E0,1E0,8.5E0,2.75E0,1.5E0,2.25E0,1E0,1.75E0],"tree_param":{"num_deleted":"0","num_feature":"132","num_nodes":"37","size_leaf_vector":"0"}},{"base_weights":[6.7680603E-1,-1.0028985E0,1.9819818E0,-1.7903928E0,5.5172396E-1,1.9908882E0,1.1999904E-6,-1.8577775E0,1.99998E-6,1.7333322E0,-7.142852E-1,1.4285632E-6,1.9999998E-6,-1.8914024E0,-0E0,-6.6666223E-7,1.9999986E-6,1.99998E-6,-9.230762E-1,-1.925581E0,-6.6666223E-7,-1.4999981E0,-0E0,-1.9613522E0,-9.99995E-1,-1.999996E-6,-6.666644E-1,1.4285632E-6,-7.692284E-1,-1.6923051E0,-1.9999995E-6,-0E0,-1.99998E-6,-1.9999866E-6,6.6666223E-7,-1.999984E-6,-0E0,-1.999996E-6,-8.57138E-7],"categories":[],"categories_nodes":[],"categories_segments":[],"categories_sizes":[],"default_left":[0,0,0,0,0,0,0,0,0,0,0,0,0,0,0,0,0,0,0,0,0,0,0,0,0,0,0,0,0,0,0,0,0,0,0,0,0,0,0],"id":25,"left_children":[1,3,5,7,9,11,-1,13,-1,15,17,-1,-1,19,-1,-1,-1,-1,21,23,-1,25,27,29,31,-1,33,-1,35,37,-1,-1,-1,-1,-1,-1,-1,-1,-1],"loss_changes":[4.3243314E2,1.0559212E2,7.730713E-1,1.4622437E1,4.338191E1,5.623169E-1,0E0,3.5138092E0,0E0,9.599991E0,7.934023E0,0E0,0E0,2.3127441E0,0E0,0E0,0E0,0E0,6.923064E0,1.779602E0,0E0,3.333311E0,5.494479E0,5.380554E-1,1.99997E0,0E0,5.3332934E0,0E0,3.076889E0,1.670311E0,0E0,0E0,0E0,0E0,0E0,0E0,0E0,0E0,0E0],"parents":[2147483647,0,0,1,1,2,2,3,3,4,4,5,5,7,7,9,9,10,10,13,13,18,18,19,19,21,21,22,22,23,23,24,24,26,26,28,28,29,29],"right_children":[2,4,6,8,10,12,-1,14,-1,16,18,-1,-1,20,-1,-1,-1,-1,22,24,-1,26,28,30,32,-1,34,-1,36,38,-1,-1,-1,-1,-1,-1,-1,-1,-1],"split_conditions":[1E0,1E0,1E0,1E0,1E0,1.2931089E1,1.1999904E-6,1E0,1.99998E-6,9.140075E0,-1.1342574E0,1.4285632E-6,1.9999998E-6,1E0,-0E0,-6.6666223E-7,1.9999986E-6,1.99998E-6,1.285184E1,1E0,-6.6666223E-7,1E0,1.3061764E1,1.2056557E1,1.123372E4,-1.999996E-6,1.7E1,1.4285632E-6,1.3331147E1,9.187583E0,-1.9999995E-6,-0E0,-1.99998E-6,-1.9999866E-6,6.6666223E-7,-1.999984E-6,-0E0,-1.999996E-6,-8.57138E-7],"split_indices":[15,80,72,63,74,4,0,65,0,7,11,0,0,129,0,0,0,0,4,53,0,85,5,5,1,0,0,0,4,7,0,0,0,0,0,0,0,0,0],"split_type":[0,0,0,0,0,0,0,0,0,0,0,0,0,0,0,0,0,0,0,0,0,0,0,0,0,0,0,0,0,0,0,0,0,0,0,0,0,0,0],"sum_hessian":[1.9725E2,8.625E1,1.11E2,5.725E1,2.9E1,1.0975E2,1.25E0,5.625E1,1E0,1.5E1,1.4E1,1.75E0,1.08E2,5.525E1,1E0,1.5E0,1.35E1,1E0,1.3E1,5.375E1,1.5E0,8E0,5E0,5.175E1,2E0,5E0,3E0,1.75E0,3.25E0,6.5E0,4.525E1,1E0,1E0,1.5E0,1.5E0,1.25E0,2E0,4.75E0,1.75E0],"tree_param":{"num_deleted":"0","num_feature":"132","num_nodes":"39","size_leaf_vector":"0"}},{"base_weights":[6.901763E-1,-8.988763E-1,1.981735E0,-1.7217388E0,6.031744E-1,1.4285632E-6,1.9907191E0,-1.7837834E0,-0E0,-1.1351339E0,1.3258421E0,1.9999998E-6,1.1999904E-6,-1.8532107E0,1.99998E-6,-1.5151497E0,1.99998E-6,-1.999984E-6,1.5238088E0,-1.9567564E0,-1.2727257E0,-1.7241355E0,-0E0,6.666644E-1,1.6666658E0,-1.9999995E-6,-8.57138E-7,-3.999984E-1,-1.652171E0,-1.9999964E-6,-8.57138E-7,1.9999866E-6,-6.6666223E-7,1.9322021E0,4.6153703E-1,-1.9999866E-6,1.99998E-6,-1.9999943E-6,-1.1111062E0,1.9999984E-6,1.4285632E-6,1.4285632E-6,-6.6666223E-7,-1.99998E-6,-3.999968E-7],"categories":[],"categories_nodes":[],"categories_segments":[],"categories_sizes":[],"default_left":[0,0,0,0,0,0,0,0,0,0,0,0,0,0,0,0,0,0,0,0,0,0,0,0,0,0,0,0,0,0,0,0,0,0,0,0,0,0,0,0,0,0,0,0,0],"id":26,"left_children":[1,3,5,7,9,-1,11,13,-1,15,17,-1,-1,19,-1,21,-1,-1,23,25,27,29,-1,31,33,-1,-1,35,37,-1,-1,-1,-1,39,41,-1,-1,-1,43,-1,-1,-1,-1,-1,-1],"loss_changes":[4.0739246E2,1.1000234E2,5.4418945E-1,6.1424103E0,3.957093E1,0E0,7.9071045E-1,1.4579666E1,0E0,1.1020425E1,1.4649498E1,0E0,0E0,3.2757874E0,0E0,2.6123219E0,0E0,0E0,2.5714188E0,2.1992035E0,2.7320032E0,1.7339745E0,0E0,5.3332934E0,5.7600937E0,0E0,0E0,9.599921E0,1.0820999E0,0E0,0E0,0E0,0E0,5.036087E-1,3.545765E0,0E0,0E0,0E0,1.4221928E0,0E0,0E0,0E0,0E0,0E0,0E0],"parents":[2147483647,0,0,1,1,2,2,3,3,4,4,6,6,7,7,9,9,10,10,13,13,15,15,18,18,19,19,20,20,21,21,23,23,24,24,27,27,28,28,33,33,34,34,38,38],"right_children":[2,4,6,8,10,-1,12,14,-1,16,18,-1,-1,20,-1,22,-1,-1,24,26,28,30,-1,32,34,-1,-1,36,38,-1,-1,-1,-1,40,42,-1,-1,-1,44,-1,-1,-1,-1,-1,-1],"split_conditions":[1E0,1E0,1.2931089E1,1E0,1E0,1.4285632E-6,1E0,1E0,-0E0,1E0,4.5181E3,1.9999998E-6,1.1999904E-6,1E0,1.99998E-6,1E0,1.99998E-6,-1.999984E-6,1.2294084E1,1E0,1.174242E4,1.51987E4,-0E0,1.2073294E1,1E0,-1.9999995E-6,-8.57138E-7,1.052692E4,2.2E1,-1.9999964E-6,-8.57138E-7,1.9999866E-6,-6.6666223E-7,1.3817204E1,1.3059469E1,-1.9999866E-6,1.99998E-6,-1.9999943E-6,1.874962E4,1.9999984E-6,1.4285632E-6,1.4285632E-6,-6.6666223E-7,-1.99998E-6,-3.999968E-7],"split_indices":[15,80,4,129,77,0,72,63,0,49,1,0,0,125,0,52,0,0,4,53,1,1,0,6,74,0,0,1,0,0,0,0,0,4,4,0,0,0,1,0,0,0,0,0,0],"split_type":[0,0,0,0,0,0,0,0,0,0,0,0,0,0,0,0,0,0,0,0,0,0,0,0,0,0,0,0,0,0,0,0,0,0,0,0,0,0,0,0,0,0,0,0,0],"sum_hessian":[1.985E2,8.9E1,1.095E2,5.75E1,3.15E1,1.75E0,1.0775E2,5.55E1,2E0,9.25E0,2.225E1,1.065E2,1.25E0,5.45E1,1E0,8.25E0,1E0,1.25E0,2.1E1,4.625E1,8.25E0,7.25E0,1E0,3E0,1.8E1,4.45E1,1.75E0,2.5E0,5.75E0,5.5E0,1.75E0,1.5E0,1.5E0,1.475E1,3.25E0,1.5E0,1E0,3.5E0,2.25E0,1.3E1,1.75E0,1.75E0,1.5E0,1E0,1.25E0],"tree_param":{"num_deleted":"0","num_feature":"132","num_nodes":"45","size_leaf_vector":"0"}},{"base_weights":[6.1224484E-1,-1.0364145E0,1.9906322E0,4.6666652E-1,-1.7974681E0,1.5555487E0,1.9999998E-6,-1.090908E0,1.3684204E0,-1.8626606E0,1.99998E-6,1.99998E-6,1.1999904E-6,-1.3999985E0,1.99998E-6,-1.999984E-6,1.6056329E0,-1.8947365E0,-3.999968E-7,-1.7241355E0,-5.4545254E-1,1.8571415E0,6.666649E-1,-1.9276015E0,-8.57138E-7,-1.9999966E-6,-3.999968E-7,-1.9999886E-6,1.99998E-6,1.1999904E-6,1.9215671E0,1.8181752E-1,1.99998E-6,-1.9622638E0,-1.1111062E0,1.9999982E-6,1.4285632E-6,1.1999904E-6,-6.6666223E-7,-1.9999995E-6,-1.6666639E0,-0E0,-1.999984E-6,-1.1999952E0,-1.9999943E-6,-1.999984E-6,-3.999968E-7],"categories":[],"categories_nodes":[],"categories_segments":[],"categories_sizes":[],"default_left":[0,0,0,0,0,0,0,0,0,0,0,0,0,0,0,0,0,0,0,0,0,0,0,0,0,0,0,0,0,0,0,0,0,0,0,0,0,0,0,0,0,0,0,0,0,0,0],"id":27,"left_children":[1,3,5,7,9,11,-1,13,15,17,-1,-1,-1,19,-1,-1,21,23,-1,25,27,29,31,33,-1,-1,-1,-1,-1,-1,35,37,-1,39,41,-1,-1,-1,-1,-1,43,-1,-1,45,-1,-1,-1],"loss_changes":[4.454083E2,1.0209533E2,4.350586E-1,4.2136497E1,1.4668274E1,3.5552502E-1,0E0,1.0509044E1,1.5181568E1,2.7328491E0,0E0,0E0,0E0,2.7698898E0,0E0,0E0,4.1918106E0,1.9437256E0,0E0,2.648264E0,1.0181741E1,5.9270096E-1,2.4242063E0,1.5636597E0,0E0,0E0,0E0,0E0,0E0,0E0,4.9297333E-1,2.3757389E0,0E0,5.91156E-1,2.2221944E0,0E0,0E0,0E0,0E0,0E0,9.3330574E-1,0E0,0E0,1.5999727E0,0E0,0E0,0E0],"parents":[2147483647,0,0,1,1,2,2,3,3,4,4,5,5,7,7,8,8,9,9,13,13,16,16,17,17,19,19,20,20,21,21,22,22,23,23,30,30,31,31,33,33,34,34,40,40,43,43],"right_children":[2,4,6,8,10,12,-1,14,16,18,-1,-1,-1,20,-1,-1,22,24,-1,26,28,30,32,34,-1,-1,-1,-1,-1,-1,36,38,-1,40,42,-1,-1,-1,-1,-1,44,-1,-1,46,-1,-1,-1],"split_conditions":[1E0,1E0,1.2931089E1,1E0,1E0,1.839643E4,1.9999998E-6,1E0,4.5181E3,1E0,1.99998E-6,1.99998E-6,1.1999904E-6,1.51987E4,1.99998E-6,-1.999984E-6,1E0,1E0,-3.999968E-7,1E0,1E0,1.2185291E1,1E0,1E0,-8.57138E-7,-1.9999966E-6,-3.999968E-7,-1.9999886E-6,1.99998E-6,1.1999904E-6,1.3787008E1,1E1,1.99998E-6,1.928571E4,1.123372E4,1.9999982E-6,1.4285632E-6,1.1999904E-6,-6.6666223E-7,-1.9999995E-6,2.091712E4,-0E0,-1.999984E-6,1.2688174E1,-1.9999943E-6,-1.999984E-6,-3.999968E-7],"split_indices":[15,81,4,77,63,1,0,49,1,129,0,0,0,1,0,0,74,40,0,52,103,4,62,53,0,0,0,0,0,0,4,0,0,1,1,0,0,0,0,0,1,0,0,4,0,0,0],"split_type":[0,0,0,0,0,0,0,0,0,0,0,0,0,0,0,0,0,0,0,0,0,0,0,0,0,0,0,0,0,0,0,0,0,0,0,0,0,0,0,0,0,0,0,0,0,0,0],"sum_hessian":[1.96E2,8.925E1,1.0675E2,3E1,5.925E1,2.25E0,1.045E2,1.1E1,1.9E1,5.825E1,1E0,1E0,1.25E0,1E1,1E0,1.25E0,1.775E1,5.7E1,1.25E0,7.25E0,2.75E0,1.4E1,3.75E0,5.525E1,1.75E0,6E0,1.25E0,1.75E0,1E0,1.25E0,1.275E1,2.75E0,1E0,5.3E1,2.25E0,1.1E1,1.75E0,1.25E0,1.5E0,4.7E1,6E0,1E0,1.25E0,2.5E0,3.5E0,1.25E0,1.25E0],"tree_param":{"num_deleted":"0","num_feature":"132","num_nodes":"47","size_leaf_vector":"0"}},{"base_weights":[6.839378E-1,-1.148148E0,1.3956834E0,-1.8873234E0,2.7027014E-1,-6.1417305E-1,1.9906758E0,-1.9999993E-6,-6.666644E-1,1.6923059E0,-1.3142842E0,-1.5844147E0,8.799993E-1,1.5555487E0,1.9999998E-6,-1.99999E-6,1.99998E-6,2.8571264E-7,1.9999975E-6,-3.999984E-1,-1.6799973E0,3.999984E-1,-1.8805959E0,1.6129011E0,-3.157888E-1,1.99998E-6,1.1999904E-6,-1.999984E-6,1.1999904E-6,-0E0,-1.9999961E-6,1.99998E-6,-6.6666223E-7,-1.9999986E-6,-1.2727226E0,1.8518491E0,-0E0,1.4285632E-6,-1.3333288E0,-0E0,-1.9999886E-6,1.9999964E-6,1.1999904E-6,-1.99999E-6,-0E0],"categories":[],"categories_nodes":[],"categories_segments":[],"categories_sizes":[],"default_left":[0,0,0,0,0,0,0,0,0,0,0,0,0,0,0,0,0,0,0,0,0,0,0,0,0,0,0,0,0,0,0,0,0,0,0,0,0,0,0,0,0,0,0,0,0],"id":28,"left_children":[1,3,5,7,9,11,13,-1,15,17,19,21,23,25,-1,-1,-1,-1,-1,27,29,31,33,35,37,-1,-1,-1,-1,-1,-1,-1,-1,-1,39,41,-1,-1,43,-1,-1,-1,-1,-1,-1],"loss_changes":[2.5166797E2,5.6616837E1,1.6622308E2,4.882614E0,4.1685974E1,4.6028267E1,4.3511963E-1,0E0,1.0666591E1,4.2197704E0,2.9257002E0,1.1314117E1,1.0954954E1,3.5552502E-1,0E0,0E0,0E0,0E0,0E0,6.399947E0,3.3599873E0,4.266624E0,1.2157211E0,2.9868488E0,8.431041E0,0E0,0E0,0E0,0E0,0E0,0E0,0E0,0E0,0E0,2.5454307E0,6.518345E-1,0E0,0E0,2.6666446E0,0E0,0E0,0E0,0E0,0E0,0E0],"parents":[2147483647,0,0,1,1,2,2,3,3,4,4,5,5,6,6,8,8,9,9,10,10,11,11,12,12,13,13,19,19,20,20,21,21,22,22,23,23,24,24,34,34,35,35,38,38],"right_children":[2,4,6,8,10,12,14,-1,16,18,20,22,24,26,-1,-1,-1,-1,-1,28,30,32,34,36,38,-1,-1,-1,-1,-1,-1,-1,-1,-1,40,42,-1,-1,44,-1,-1,-1,-1,-1,-1],"split_conditions":[1.2906568E1,1E0,1E0,1E0,1E0,1E0,1.2931089E1,-1.9999993E-6,1E0,9.32146E3,1E0,1.3006148E1,1E0,1.258208E4,1.9999998E-6,-1.99999E-6,1.99998E-6,2.8571264E-7,1.9999975E-6,1.7E1,1E0,2.4E1,1E0,1.02E2,1.3065215E1,1.99998E-6,1.1999904E-6,-1.999984E-6,1.1999904E-6,-0E0,-1.9999961E-6,1.99998E-6,-6.6666223E-7,-1.9999986E-6,1.174242E4,1.3817204E1,-0E0,1.4285632E-6,8.4E1,-0E0,-1.9999886E-6,1.9999964E-6,1.1999904E-6,-1.99999E-6,-0E0],"split_indices":[6,80,15,92,74,80,4,0,63,1,84,5,74,1,0,0,0,0,0,0,100,0,125,0,5,0,0,0,0,0,0,0,0,0,1,4,0,0,0,0,0,0,0,0,0],"split_type":[0,0,0,0,0,0,0,0,0,0,0,0,0,0,0,0,0,0,0,0,0,0,0,0,0,0,0,0,0,0,0,0,0,0,0,0,0,0,0,0,0,0,0,0,0],"sum_hessian":[1.93E2,5.4E1,1.39E2,3.55E1,1.85E1,3.175E1,1.0725E2,3.25E1,3E0,9.75E0,8.75E0,1.925E1,1.25E1,2.25E0,1.05E2,2E0,1E0,1.75E0,8E0,2.5E0,6.25E0,2.5E0,1.675E1,7.75E0,4.75E0,1E0,1.25E0,1.25E0,1.25E0,1E0,5.25E0,1E0,1.5E0,1.4E1,2.75E0,6.75E0,1E0,1.75E0,3E0,1E0,1.75E0,5.5E0,1.25E0,2E0,1E0],"tree_param":{"num_deleted":"0","num_feature":"132","num_nodes":"45","size_leaf_vector":"0"}},{"base_weights":[6.9044584E-1,-1.1926603E0,1.414462E0,-1.8888884E0,1.6216208E-1,-6.559998E-1,1.9999998E-6,-1.9420284E0,-6.6666223E-7,1.5862048E0,-7.5555485E-1,-1.7894727E0,1.1020399E0,-1.9999993E-6,-1.2727226E0,-3.999968E-7,1.9999966E-6,-1.3142842E0,1.1999952E0,-0E0,-1.8888879E0,1.5348823E0,-1.9999866E-6,-1.9999886E-6,-0E0,-2.2222124E-1,-1.6923051E0,-0E0,1.9999866E-6,-1.9999989E-6,-3.999968E-7,1.8709654E0,6.666644E-1,1.1999904E-6,-1.99998E-6,-1.9999964E-6,-0E0,1.1999904E-6,1.9999968E-6,1.99998E-6,-0E0],"categories":[],"categories_nodes":[],"categories_segments":[],"categories_sizes":[],"default_left":[0,0,0,0,0,0,0,0,0,0,0,0,0,0,0,0,0,0,0,0,0,0,0,0,0,0,0,0,0,0,0,0,0,0,0,0,0,0,0,0,0],"id":29,"left_children":[1,3,5,7,9,11,-1,13,-1,15,17,19,21,-1,23,-1,-1,25,27,-1,29,31,-1,-1,-1,33,35,-1,-1,-1,-1,37,39,-1,-1,-1,-1,-1,-1,-1,-1],"loss_changes":[2.675671E2,5.140796E1,1.7184833E2,2.33815E0,2.4177084E1,6.2271614E1,0E0,1.3385773E0,0E0,5.958605E0,1.2292038E1,3.3801193E0,1.644798E1,0E0,2.5454307E0,0E0,0E0,3.6121988E0,2.3999743E0,0E0,2.9777756E0,3.1367683E0,0E0,0E0,0E0,5.6888347E0,3.3846054E0,0E0,0E0,0E0,0E0,6.70948E-1,2.6666312E0,0E0,0E0,0E0,0E0,0E0,0E0,0E0,0E0],"parents":[2147483647,0,0,1,1,2,2,3,3,4,4,5,5,7,7,9,9,10,10,11,11,12,12,14,14,17,17,18,18,20,20,21,21,25,25,26,26,31,31,32,32],"right_children":[2,4,6,8,10,12,-1,14,-1,16,18,20,22,-1,24,-1,-1,26,28,-1,30,32,-1,-1,-1,34,36,-1,-1,-1,-1,38,40,-1,-1,-1,-1,-1,-1,-1,-1],"split_conditions":[1.3021568E1,1E0,1E0,1E0,1E0,1E0,1.9999998E-6,1E0,-6.6666223E-7,9.32146E3,9.801224E0,2.2E1,1E0,-1.9999993E-6,1.2333146E1,-3.999968E-7,1.9999966E-6,1E0,1.2448089E1,-0E0,1E0,1E0,-1.9999866E-6,-1.9999886E-6,-0E0,1.8E1,1E0,-0E0,1.9999866E-6,-1.9999989E-6,-3.999968E-7,1.123372E4,1.306431E1,1.1999904E-6,-1.99998E-6,-1.9999964E-6,-0E0,1.1999904E-6,1.9999968E-6,1.99998E-6,-0E0],"split_indices":[5,80,15,49,74,80,0,92,0,1,7,0,2,0,5,0,0,78,4,0,40,74,0,0,0,0,52,0,0,0,0,1,4,0,0,0,0,0,0,0,0],"split_type":[0,0,0,0,0,0,0,0,0,0,0,0,0,0,0,0,0,0,0,0,0,0,0,0,0,0,0,0,0,0,0,0,0,0,0,0,0,0,0,0,0],"sum_hessian":[1.9625E2,5.45E1,1.4175E2,3.6E1,1.85E1,3.125E1,1.105E2,3.45E1,1.5E0,7.25E0,1.125E1,1.9E1,1.225E1,3.175E1,2.75E0,1.25E0,6E0,8.75E0,2.5E0,1E0,1.8E1,1.075E1,1.5E0,1.75E0,1E0,2.25E0,6.5E0,1E0,1.5E0,1.675E1,1.25E0,7.75E0,3E0,1.25E0,1E0,5.5E0,1E0,1.25E0,6.5E0,1E0,2E0],"tree_param":{"num_deleted":"0","num_feature":"132","num_nodes":"41","size_leaf_vector":"0"}},{"base_weights":[6.937738E-1,-8.4444433E-1,1.9906322E0,6.870227E-1,-1.7205237E0,1.5555487E0,1.9999998E-6,1.7333324E0,-7.142852E-1,-1.8206275E0,1.9999866E-6,1.99998E-6,1.1999904E-6,1.9436609E0,-1.99998E-6,-1.219511E0,6.666649E-1,-1.9175254E0,-1.1724122E0,1.9999989E-6,1.4285632E-6,-0E0,-1.7241355E0,1.9999866E-6,-2.2222124E-1,-1.9576715E0,-3.999968E-7,-3.999984E-1,-1.5789441E0,-8.57138E-7,1.1999904E-6,-1.9999966E-6,-6.6666223E-7,-3.999968E-7,-0E0,-1.9999995E-6,-9.99995E-1,-1.9999866E-6,1.99998E-6,-1.9999934E-6,-8.57138E-7,-0E0,-1.99998E-6],"categories":[],"categories_nodes":[],"categories_segments":[],"categories_sizes":[],"default_left":[0,0,0,0,0,0,0,0,0,0,0,0,0,0,0,0,0,0,0,0,0,0,0,0,0,0,0,0,0,0,0,0,0,0,0,0,0,0,0,0,0,0,0],"id":30,"left_children":[1,3,5,7,9,11,-1,13,15,17,-1,-1,-1,19,-1,21,23,25,27,-1,-1,29,31,-1,33,35,-1,37,39,-1,-1,-1,-1,-1,-1,-1,41,-1,-1,-1,-1,-1,-1],"loss_changes":[3.92487E2,1.2075182E2,4.350586E-1,4.8018143E1,2.1322052E1,3.5552502E-1,0E0,1.4722965E1,9.767699E0,3.5016785E0,0E0,0E0,0E0,5.150757E-1,0E0,6.307805E0,4.4444084E0,2.9547577E0,2.276575E0,0E0,0E0,3.0856924E0,2.1149273E0,0E0,8.888777E-2,1.9153137E0,0E0,9.599921E0,1.4435873E0,0E0,0E0,0E0,0E0,0E0,0E0,0E0,1.99997E0,0E0,0E0,0E0,0E0,0E0,0E0],"parents":[2147483647,0,0,1,1,2,2,3,3,4,4,5,5,7,7,8,8,9,9,13,13,15,15,16,16,17,17,18,18,21,21,22,22,24,24,25,25,27,27,28,28,36,36],"right_children":[2,4,6,8,10,12,-1,14,16,18,-1,-1,-1,20,-1,22,24,26,28,-1,-1,30,32,-1,34,36,-1,38,40,-1,-1,-1,-1,-1,-1,-1,42,-1,-1,-1,-1,-1,-1],"split_conditions":[1E0,1E0,1.2931089E1,1E0,1E0,1.258208E4,1.9999998E-6,1.4E2,1.805582E4,1E0,1.9999866E-6,1.99998E-6,1.1999904E-6,1.3821393E1,-1.99998E-6,1E0,1.905074E4,1E0,1.174242E4,1.9999989E-6,1.4285632E-6,3.8E1,5.1E1,1.9999866E-6,1E0,1E0,-3.999968E-7,1.052692E4,1.2688174E1,-8.57138E-7,1.1999904E-6,-1.9999966E-6,-6.6666223E-7,-3.999968E-7,-0E0,-1.9999995E-6,1.123372E4,-1.9999866E-6,1.99998E-6,-1.9999934E-6,-8.57138E-7,-0E0,-1.99998E-6],"split_indices":[15,81,4,74,63,1,0,0,1,125,0,0,0,5,0,78,1,129,1,0,0,0,0,0,2,53,0,1,4,0,0,0,0,0,0,0,1,0,0,0,0,0,0],"split_type":[0,0,0,0,0,0,0,0,0,0,0,0,0,0,0,0,0,0,0,0,0,0,0,0,0,0,0,0,0,0,0,0,0,0,0,0,0,0,0,0,0,0,0],"sum_hessian":[1.9675E2,9E1,1.0675E2,3.275E1,5.725E1,2.25E0,1.045E2,1.875E1,1.4E1,5.575E1,1.5E0,1E0,1.25E0,1.775E1,1E0,1.025E1,3.75E0,4.85E1,7.25E0,1.6E1,1.75E0,3E0,7.25E0,1.5E0,2.25E0,4.725E1,1.25E0,2.5E0,4.75E0,1.75E0,1.25E0,5.75E0,1.5E0,1.25E0,1E0,4.525E1,2E0,1.5E0,1E0,3E0,1.75E0,1E0,1E0],"tree_param":{"num_deleted":"0","num_feature":"132","num_nodes":"43","size_leaf_vector":"0"}},{"base_weights":[6.799007E-1,-9.333332E-1,1.9820626E0,-1.7586204E0,5.624998E-1,1.9909295E0,1.1999904E-6,-1.7894734E0,-0E0,1.3636358E0,-1.1999989E0,1.8260838E0,1.9999998E-6,-1.8571426E0,1.99998E-6,-1.999984E-6,1.5662643E0,-1.5555538E0,1.99998E-6,1.9999957E-6,1.1999904E-6,-1.8883717E0,-1.1111062E0,1.8709666E0,6.666654E-1,-1.9999968E-6,-5.4545254E-1,-1.9999995E-6,-1.2499985E0,-0E0,-1.999984E-6,1.1999904E-6,1.9298232E0,-6.6666223E-7,1.1999968E0,-1.9999886E-6,1.99998E-6,-0E0,-1.6666639E0,1.9999984E-6,1.4285632E-6,1.99999E-6,2.8571264E-7,-1.99998E-6,1.99998E-6,-1.9999945E-6,-1.1111062E0,-3.999968E-7,-1.99998E-6],"categories":[],"categories_nodes":[],"categories_segments":[],"categories_sizes":[],"default_left":[0,0,0,0,0,0,0,0,0,0,0,0,0,0,0,0,0,0,0,0,0,0,0,0,0,0,0,0,0,0,0,0,0,0,0,0,0,0,0,0,0,0,0,0,0,0,0,0,0],"id":31,"left_children":[1,3,5,7,9,11,-1,13,-1,15,17,19,-1,21,-1,-1,23,25,-1,-1,-1,27,29,31,33,-1,35,-1,37,-1,-1,-1,39,-1,41,-1,-1,43,45,-1,-1,-1,-1,-1,-1,-1,47,-1,-1],"loss_changes":[4.2328946E2,1.1110428E2,7.7319336E-1,3.1470032E0,4.5184067E1,1.6482544E-1,0E0,1.4616486E1,0E0,1.4994476E1,1.1377728E1,6.260662E-1,0E0,1.3046722E0,0E0,0E0,5.687767E0,4.0403843E0,0E0,0E0,0E0,3.8302002E0,2.2221944E0,6.120949E-1,3.733319E0,0E0,1.0181741E1,0E0,4.1666546E0,0E0,0E0,0E0,5.0123215E-1,0E0,2.7428308E0,0E0,0E0,7.99992E0,1.1110859E0,0E0,0E0,0E0,0E0,0E0,0E0,0E0,1.4221928E0,0E0,0E0],"parents":[2147483647,0,0,1,1,2,2,3,3,4,4,5,5,7,7,9,9,10,10,11,11,13,13,16,16,17,17,21,21,22,22,23,23,24,24,26,26,28,28,32,32,34,34,37,37,38,38,46,46],"right_children":[2,4,6,8,10,12,-1,14,-1,16,18,20,-1,22,-1,-1,24,26,-1,-1,-1,28,30,32,34,-1,36,-1,38,-1,-1,-1,40,-1,42,-1,-1,44,46,-1,-1,-1,-1,-1,-1,-1,48,-1,-1],"split_conditions":[1E0,1E0,1E0,1E0,1E0,2.3E1,1.1999904E-6,1E0,-0E0,4.5181E3,1E0,1E0,1.9999998E-6,1E0,1.99998E-6,-1.999984E-6,1E0,1.51987E4,1.99998E-6,1.9999957E-6,1.1999904E-6,1E0,1.123372E4,9.32146E3,1.2311175E1,-1.9999968E-6,1E0,-1.9999995E-6,1.174242E4,-0E0,-1.999984E-6,1.1999904E-6,1.3817204E1,-6.6666223E-7,1.306431E1,-1.9999886E-6,1.99998E-6,8.99565E3,2.2E1,1.9999984E-6,1.4285632E-6,1.99999E-6,2.8571264E-7,-1.99998E-6,1.99998E-6,-1.9999945E-6,1.93554E4,-3.999968E-7,-1.99998E-6],"split_indices":[15,80,72,93,2,0,0,63,0,1,49,103,0,53,0,0,74,1,0,0,0,125,1,1,4,0,103,0,1,0,0,0,4,0,4,0,0,1,0,0,0,0,0,0,0,0,1,0,0],"split_type":[0,0,0,0,0,0,0,0,0,0,0,0,0,0,0,0,0,0,0,0,0,0,0,0,0,0,0,0,0,0,0,0,0,0,0,0,0,0,0,0,0,0,0,0,0,0,0,0,0],"sum_hessian":[2.015E2,9E1,1.115E2,5.8E1,3.2E1,1.1025E2,1.25E0,5.7E1,1E0,2.2E1,1E1,5.75E0,1.045E2,5.6E1,1E0,1.25E0,2.075E1,9E0,1E0,4.5E0,1.25E0,5.375E1,2.25E0,1.55E1,5.25E0,6.25E0,2.75E0,4.575E1,8E0,1E0,1.25E0,1.25E0,1.425E1,1.5E0,3.75E0,1.75E0,1E0,2E0,6E0,1.25E1,1.75E0,2E0,1.75E0,1E0,1E0,3.75E0,2.25E0,1.25E0,1E0],"tree_param":{"num_deleted":"0","num_feature":"132","num_nodes":"49","size_leaf_vector":"0"}},{"base_weights":[6.8329173E-1,-8.950275E-1,1.981818E0,6.04651E-1,-1.7253217E0,1.5555487E0,1.9907191E0,1.6756748E0,-8.36363E-1,-1.8237882E0,1.9999866E-6,1.99998E-6,1.1999904E-6,1.9069749E0,1.9999998E-6,-1.99998E-6,1.8857132E0,-1.5151497E0,1.8181784E-1,-1.8565019E0,-0E0,1.5555487E0,1.9999977E-6,1.1999904E-6,1.9384604E0,-1.9999973E-6,1.99998E-6,6.666652E-1,-1.99998E-6,-1.8904107E0,-0E0,1.99998E-6,1.1999904E-6,1.9999986E-6,1.4285632E-6,-0E0,1.9999866E-6,-1.9245279E0,-8.57138E-7,-1.99998E-6,9.99995E-1,-1.9999995E-6,-1.4666647E0,-0E0,1.99998E-6,-5.4545254E-1,-1.999996E-6,-1.9999886E-6,1.99998E-6],"categories":[],"categories_nodes":[],"categories_segments":[],"categories_sizes":[],"default_left":[0,0,0,0,0,0,0,0,0,0,0,0,0,0,0,0,0,0,0,0,0,0,0,0,0,0,0,0,0,0,0,0,0,0,0,0,0,0,0,0,0,0,0,0,0,0,0,0,0],"id":32,"left_children":[1,3,5,7,9,11,13,15,17,19,-1,-1,-1,21,-1,-1,23,25,27,29,-1,31,-1,-1,33,-1,-1,35,-1,37,-1,-1,-1,-1,-1,39,-1,41,-1,-1,43,-1,45,-1,-1,47,-1,-1,-1],"loss_changes":[4.109226E2,1.1268827E2,4.1738892E-1,4.97734E1,2.1367203E1,3.5552502E-1,8.3740234E-2,1.4282574E1,9.503015E0,3.3858643E0,0E0,0E0,0E0,3.5139465E-1,0E0,0E0,6.329498E-1,1.4060549E1,5.8181376E0,3.509552E0,0E0,3.5552502E-1,0E0,0E0,5.098686E-1,0E0,0E0,3.9999642E0,0E0,1.9300537E0,0E0,0E0,0E0,0E0,0E0,5.99995E0,0E0,1.8314209E0,0E0,0E0,1.99997E0,0E0,3.684826E0,0E0,0E0,1.0181741E1,0E0,0E0,0E0],"parents":[2147483647,0,0,1,1,2,2,3,3,4,4,5,5,6,6,7,7,8,8,9,9,13,13,16,16,17,17,18,18,19,19,21,21,24,24,27,27,29,29,35,35,37,37,40,40,42,42,45,45],"right_children":[2,4,6,8,10,12,14,16,18,20,-1,-1,-1,22,-1,-1,24,26,28,30,-1,32,-1,-1,34,-1,-1,36,-1,38,-1,-1,-1,-1,-1,40,-1,42,-1,-1,44,-1,46,-1,-1,48,-1,-1,-1],"split_conditions":[1E0,1E0,1.2931089E1,1E0,1E0,9.440029E0,6.79487E3,4.5181E3,1E0,1E0,1.9999866E-6,1.99998E-6,1.1999904E-6,1.3177019E1,1.9999998E-6,-1.99998E-6,1.2185291E1,1E0,1E0,1E0,-0E0,1.3153668E1,1.9999977E-6,1.1999904E-6,1.3817204E1,-1.9999973E-6,1.99998E-6,1E0,-1.99998E-6,1E0,-0E0,1.99998E-6,1.1999904E-6,1.9999986E-6,1.4285632E-6,2.7E1,1.9999866E-6,1E0,-8.57138E-7,-1.99998E-6,3.9E1,-1.9999995E-6,1.174242E4,-0E0,1.99998E-6,9.261691E0,-1.999996E-6,-1.9999886E-6,1.99998E-6],"split_indices":[15,81,4,74,63,7,1,1,77,65,0,0,0,5,0,0,5,49,103,129,0,4,0,0,4,0,0,106,0,53,0,0,0,0,0,0,0,125,0,0,0,0,1,0,0,7,0,0,0],"split_type":[0,0,0,0,0,0,0,0,0,0,0,0,0,0,0,0,0,0,0,0,0,0,0,0,0,0,0,0,0,0,0,0,0,0,0,0,0,0,0,0,0,0,0,0,0,0,0,0,0],"sum_hessian":[2.005E2,9.05E1,1.1E2,3.225E1,5.825E1,2.25E0,1.0775E2,1.85E1,1.375E1,5.675E1,1.5E0,1E0,1.25E0,1.075E1,9.7E1,1E0,1.75E1,8.25E0,5.5E0,5.575E1,1E0,2.25E0,8.5E0,1.25E0,1.625E1,7.25E0,1E0,4.5E0,1E0,5.475E1,1E0,1E0,1.25E0,1.45E1,1.75E0,3E0,1.5E0,5.3E1,1.75E0,1E0,2E0,4.55E1,7.5E0,1E0,1E0,2.75E0,4.75E0,1.75E0,1E0],"tree_param":{"num_deleted":"0","num_feature":"132","num_nodes":"49","size_leaf_vector":"0"}},{"base_weights":[6.529032E-1,-9.515668E-1,1.9811319E0,-1.7565215E0,5.785122E-1,1.6363577E0,1.9903146E0,-1.8230085E0,1.99998E-6,1.4022982E0,-1.52941E0,1.9999866E-6,1.1999904E-6,1.9999998E-6,1.6923025E0,-1.9187813E0,-1.1724122E0,-1.99998E-6,1.5662643E0,-1.9999966E-6,-3.999984E-1,1.1999904E-6,1.99999E-6,-1.9583329E0,-3.999968E-7,-2.2222124E-1,-1.5999968E0,1.8749988E0,5.263147E-1,1.99998E-6,-1.9999866E-6,-1.9999993E-6,-1.8888879E0,-1.999984E-6,1.99998E-6,-1.9999927E-6,-1.1111062E0,1.1999904E-6,1.9322021E0,1.99998E-6,1.3333298E-1,-1.9999986E-6,-1.3846111E0,-1.99998E-6,-3.999968E-7,1.9999984E-6,1.4285632E-6,-8.57138E-7,9.99995E-7,-0E0,-1.9999911E-6],"categories":[],"categories_nodes":[],"categories_segments":[],"categories_sizes":[],"default_left":[0,0,0,0,0,0,0,0,0,0,0,0,0,0,0,0,0,0,0,0,0,0,0,0,0,0,0,0,0,0,0,0,0,0,0,0,0,0,0,0,0,0,0,0,0,0,0,0,0,0,0],"id":33,"left_children":[1,3,5,7,9,11,13,15,-1,17,19,-1,-1,-1,21,23,25,-1,27,-1,29,-1,-1,31,-1,33,35,37,39,-1,-1,-1,41,-1,-1,-1,43,-1,45,-1,47,-1,49,-1,-1,-1,-1,-1,-1,-1,-1],"loss_changes":[4.1290128E2,1.08076775E2,3.356018E-1,1.436116E1,5.2528465E1,4.3633556E-1,2.9797363E-1,3.5204468E0,0E0,1.2133453E1,4.5176277E0,0E0,0E0,0E0,4.922819E-1,2.9584503E0,2.9455814E0,0E0,6.662163E0,0E0,9.599921E0,0E0,0E0,1.3887024E-1,0E0,8.888809E0,9.777508E-1,6.177788E-1,2.7508397E0,0E0,0E0,0E0,1.0085297E0,0E0,0E0,0E0,1.4221928E0,0E0,5.036087E-1,0E0,3.2190304E0,0E0,2.7692099E0,0E0,0E0,0E0,0E0,0E0,0E0,0E0,0E0],"parents":[2147483647,0,0,1,1,2,2,3,3,4,4,5,5,6,6,7,7,9,9,10,10,14,14,15,15,16,16,18,18,20,20,23,23,25,25,26,26,27,27,28,28,32,32,36,36,38,38,40,40,42,42],"right_children":[2,4,6,8,10,12,14,16,-1,18,20,-1,-1,-1,22,24,26,-1,28,-1,30,-1,-1,32,-1,34,36,38,40,-1,-1,-1,42,-1,-1,-1,44,-1,46,-1,48,-1,50,-1,-1,-1,-1,-1,-1,-1,-1],"split_conditions":[1E0,1E0,1.723284E-1,1E0,1E0,1.839643E4,1E0,1E0,1.99998E-6,4.5181E3,1.51987E4,1.9999866E-6,1.1999904E-6,1.9999998E-6,4.6E1,1E0,9.370963E0,-1.99998E-6,1E0,-1.9999966E-6,1E0,1.1999904E-6,1.99999E-6,4.3E1,-3.999968E-7,1.052692E4,2.2E1,9.32146E3,1E1,1.99998E-6,-1.9999866E-6,-1.9999993E-6,1E0,-1.999984E-6,1.99998E-6,-1.9999927E-6,1.874962E4,1.1999904E-6,1.3806107E1,1.99998E-6,2.7E1,-1.9999986E-6,1.3366104E1,-1.99998E-6,-3.999968E-7,1.9999984E-6,1.4285632E-6,-8.57138E-7,9.99995E-7,-0E0,-1.9999911E-6],"split_indices":[15,80,9,63,78,1,124,125,0,1,1,0,0,0,0,129,7,0,74,0,104,0,0,0,0,1,0,1,0,0,0,0,115,0,0,0,1,0,4,0,0,0,5,0,0,0,0,0,0,0,0],"split_type":[0,0,0,0,0,0,0,0,0,0,0,0,0,0,0,0,0,0,0,0,0,0,0,0,0,0,0,0,0,0,0,0,0,0,0,0,0,0,0,0,0,0,0,0,0,0,0,0,0,0,0],"sum_hessian":[1.9375E2,8.775E1,1.06E2,5.75E1,3.025E1,2.75E0,1.0325E2,5.65E1,1E0,2.175E1,8.5E0,1.5E0,1.25E0,1E2,3.25E0,4.925E1,7.25E0,1E0,2.075E1,6E0,2.5E0,1.25E0,2E0,4.8E1,1.25E0,2.25E0,5E0,1.6E1,4.75E0,1E0,1.5E0,3E1,1.8E1,1.25E0,1E0,2.75E0,2.25E0,1.25E0,1.475E1,1E0,3.75E0,1.475E1,3.25E0,1E0,1.25E0,1.3E1,1.75E0,1.75E0,2E0,1E0,2.25E0],"tree_param":{"num_deleted":"0","num_feature":"132","num_nodes":"51","size_leaf_vector":"0"}},{"base_weights":[6.7012984E-1,-8.895183E-1,1.9904075E0,5.648853E-1,-1.7477474E0,1.6363577E0,1.9999998E-6,-1.219511E0,1.3777772E0,-1.8518515E0,1.9999866E-6,1.9999866E-6,1.1999904E-6,-1.5675659E0,1.99998E-6,-1.1111062E0,1.6543201E0,-1.8867921E0,-0E0,-5.4545254E-1,-1.9999968E-6,-0E0,-1.999984E-6,1.8749988E0,8.2352746E-1,-1.9207917E0,-1.1999952E0,-0E0,-8.57138E-7,9.99995E-1,1.9999986E-6,1.5555487E0,-0E0,-1.9593905E0,-3.999968E-7,-0E0,-1.9999866E-6,-0E0,1.99998E-6,1.99998E-6,1.1999904E-6,-1.99998E-6,1.99998E-6,-1.9999995E-6,-1.3846111E0,-0E0,-1.9999911E-6],"categories":[],"categories_nodes":[],"categories_segments":[],"categories_sizes":[],"default_left":[0,0,0,0,0,0,0,0,0,0,0,0,0,0,0,0,0,0,0,0,0,0,0,0,0,0,0,0,0,0,0,0,0,0,0,0,0,0,0,0,0,0,0,0,0,0,0],"id":34,"left_children":[1,3,5,7,9,11,-1,13,15,17,-1,-1,-1,19,-1,21,23,25,-1,27,-1,-1,-1,29,31,33,35,-1,-1,37,-1,39,41,43,-1,-1,-1,-1,-1,-1,-1,-1,-1,-1,45,-1,-1],"loss_changes":[3.9638998E2,1.10154686E2,3.5403442E-1,4.7504604E1,2.165361E1,4.3633556E-1,0E0,1.1485778E1,1.5486393E1,3.4940643E0,0E0,0E0,0E0,4.0884323E0,0E0,2.2221944E0,3.7125854E0,1.2375641E0,0E0,4.6752816E-1,0E0,0E0,0E0,1.7499847E0,2.5620737E0,2.964386E0,2.3999743E0,0E0,0E0,1.99997E0,0E0,3.5552502E-1,7.99992E0,1.1495209E0,0E0,0E0,0E0,0E0,0E0,0E0,0E0,0E0,0E0,0E0,2.7692099E0,0E0,0E0],"parents":[2147483647,0,0,1,1,2,2,3,3,4,4,5,5,7,7,8,8,9,9,13,13,15,15,16,16,17,17,19,19,23,23,24,24,25,25,26,26,29,29,31,31,32,32,33,33,44,44],"right_children":[2,4,6,8,10,12,-1,14,16,18,-1,-1,-1,20,-1,22,24,26,-1,28,-1,-1,-1,30,32,34,36,-1,-1,38,-1,40,42,44,-1,-1,-1,-1,-1,-1,-1,-1,-1,-1,46,-1,-1],"split_conditions":[1E0,1E0,1.2931089E1,1E0,1E0,1.2273275E1,1.9999998E-6,1E0,8.35155E3,1E0,1.9999866E-6,1.9999866E-6,1.1999904E-6,1.2231887E1,1.99998E-6,3E1,1E0,1E0,-0E0,9.135951E0,-1.9999968E-6,-0E0,-1.999984E-6,1.086417E4,1E0,1E0,9.326675E0,-0E0,-8.57138E-7,7.3E1,1.9999986E-6,3.1E1,1E0,1E0,-3.999968E-7,-0E0,-1.9999866E-6,-0E0,1.99998E-6,1.99998E-6,1.1999904E-6,-1.99998E-6,1.99998E-6,-1.9999995E-6,1.2219975E1,-0E0,-1.9999911E-6],"split_indices":[15,81,4,77,63,4,0,49,1,65,0,0,0,5,0,0,85,53,0,7,0,0,0,1,74,129,7,0,0,0,0,0,106,25,0,0,0,0,0,0,0,0,0,0,5,0,0],"split_type":[0,0,0,0,0,0,0,0,0,0,0,0,0,0,0,0,0,0,0,0,0,0,0,0,0,0,0,0,0,0,0,0,0,0,0,0,0,0,0,0,0,0,0,0,0,0,0],"sum_hessian":[1.925E2,8.825E1,1.0425E2,3.275E1,5.55E1,2.75E0,1.015E2,1.025E1,2.25E1,5.4E1,1.5E0,1.5E0,1.25E0,9.25E0,1E0,2.25E0,2.025E1,5.3E1,1E0,2.75E0,6.5E0,1E0,1.25E0,1.6E1,4.25E0,5.05E1,2.5E0,1E0,1.75E0,2E0,1.4E1,2.25E0,2E0,4.925E1,1.25E0,1E0,1.5E0,1E0,1E0,1E0,1.25E0,1E0,1E0,4.6E1,3.25E0,1E0,2.25E0],"tree_param":{"num_deleted":"0","num_feature":"132","num_nodes":"47","size_leaf_vector":"0"}},{"base_weights":[6.90629E-1,-9.164264E-1,1.9814813E0,-1.7828051E0,6.031744E-1,1.9906322E0,1.1999904E-6,-1.8883717E0,1.9999866E-6,1.8153836E0,-6.885241E-1,1.5555487E0,1.9999998E-6,-1.9241703E0,-0E0,2.8571264E-7,1.9999986E-6,-1.35135E0,3.3333278E-1,1.99998E-6,1.1999904E-6,-1.9609752E0,-6.6666223E-7,1.99998E-6,-1.7575736E0,1.6363577E0,-7.692284E-1,-1.9999995E-6,-1.4666628E0,-0E0,-1.9999973E-6,1.9999866E-6,1.1999904E-6,-0E0,-1.999984E-6,-0E0,-1.9999927E-6],"categories":[],"categories_nodes":[],"categories_segments":[],"categories_sizes":[],"default_left":[0,0,0,0,0,0,0,0,0,0,0,0,0,0,0,0,0,0,0,0,0,0,0,0,0,0,0,0,0,0,0,0,0,0,0,0,0],"id":35,"left_children":[1,3,5,7,9,11,-1,13,-1,15,17,19,-1,21,-1,-1,-1,23,25,-1,-1,27,-1,-1,29,31,33,-1,35,-1,-1,-1,-1,-1,-1,-1,-1],"loss_changes":[4.040033E2,1.14210724E2,7.7233887E-1,2.206337E1,4.9323006E1,4.350586E-1,0E0,3.633545E0,0E0,4.5890045E0,1.0329037E1,3.5552502E-1,0E0,2.441391E0,0E0,0E0,0E0,1.2592903E1,8.620014E0,0E0,0E0,9.886017E-1,0E0,0E0,3.5151424E0,4.3633556E-1,3.076889E0,0E0,2.9333143E0,0E0,0E0,0E0,0E0,0E0,0E0,0E0,0E0],"parents":[2147483647,0,0,1,1,2,2,3,3,4,4,5,5,7,7,9,9,10,10,11,11,13,13,17,17,18,18,21,21,24,24,25,25,26,26,28,28],"right_children":[2,4,6,8,10,12,-1,14,-1,16,18,20,-1,22,-1,-1,-1,24,26,-1,-1,28,-1,-1,30,32,34,-1,36,-1,-1,-1,-1,-1,-1,-1,-1],"split_conditions":[1E0,1E0,1E0,1E0,1E0,1.2931089E1,1.1999904E-6,1E0,1.9999866E-6,9.32146E3,1.285184E1,1.258208E4,1.9999998E-6,1E0,-0E0,2.8571264E-7,1.9999986E-6,1.1942582E1,1.3065215E1,1.99998E-6,1.1999904E-6,1E0,-6.6666223E-7,1.99998E-6,4.01057E3,1E0,1E0,